{"learner":{"attributes":{"scikit_learn":"{\"_estimator_type\": \"classifier\"}"},"feature_names":[],"feature_types":[],"gradient_booster":{"model":{"gbtree_model_param":{"num_parallel_tree":"1","num_trees":"200"},"iteration_indptr":[0,1,2,3,4,5,6,7,8,9,10,11,12,13,14,15,16,17,18,19,20,21,22,23,24,25,26,27,28,29,30,31,32,33,34,35,36,37,38,39,40,41,42,43,44,45,46,47,48,49,50,51,52,53,54,55,56,57,58,59,60,61,62,63,64,65,66,67,68,69,70,71,72,73,74,75,76,77,78,79,80,81,82,83,84,85,86,87,88,89,90,91,92,93,94,95,96,97,98,99,100,101,102,103,104,105,106,107,108,109,110,111,112,113,114,115,116,117,118,119,120,121,122,123,124,125,126,127,128,129,130,131,132,133,134,135,136,137,138,139,140,141,142,143,144,145,146,147,148,149,150,151,152,153,154,155,156,157,158,159,160,161,162,163,164,165,166,167,168,169,170,171,172,173,174,175,176,177,178,179,180,181,182,183,184,185,186,187,188,189,190,191,192,193,194,195,196,197,198,199,200],"tree_info":[0,0,0,0,0,0,0,0,0,0,0,0,0,0,0,0,0,0,0,0,0,0,0,0,0,0,0,0,0,0,0,0,0,0,0,0,0,0,0,0,0,0,0,0,0,0,0,0,0,0,0,0,0,0,0,0,0,0,0,0,0,0,0,0,0,0,0,0,0,0,0,0,0,0,0,0,0,0,0,0,0,0,0,0,0,0,0,0,0,0,0,0,0,0,0,0,0,0,0,0,0,0,0,0,0,0,0,0,0,0,0,0,0,0,0,0,0,0,0,0,0,0,0,0,0,0,0,0,0,0,0,0,0,0,0,0,0,0,0,0,0,0,0,0,0,0,0,0,0,0,0,0,0,0,0,0,0,0,0,0,0,0,0,0,0,0,0,0,0,0,0,0,0,0,0,0,0,0,0,0,0,0,0,0,0,0,0,0,0,0,0,0,0,0,0,0,0,0,0,0],"trees":[{"base_weights":[1.1172899E-2,-2.4174465E-1,3.582382E0,7.471158E-1,-8.7739575E-1,2.4245708E0,5.4332333E0,6.09156E-1,2.4311507E-1,-9.7753996E-1,4.4997483E-2,3.7275796E0,7.290391E-1,2.8288823E-1,6.972977E-2,4.1940206E-1,1.9160064E0,-5.5530753E-2,-7.5211203E-1,-2.3947333E-1,1.1777493E0,2.629375E-1,6.541492E-1,7.434352E-2,1.3384704E-1,-3.8276353E-1,5.6439817E-1,1.017239E-1,4.2237835E-3,-4.8231658E-1,-9.5515895E-1,5.463804E-1,-7.817224E-1,6.967961E-1,9.455667E-2,-2.02995E-1,9.946935E-2,-3.5322693E-1,9.455667E-2,-3.4107886E-2,1.3549275E-2,4.851625E-2,1.0990492E-2,-3.3131666E-2,1.5118613E-3,-4.8417397E-2,-4.75094E-3,-1.0458955E-3,6.1657667E-2,-5.230117E-2,-1.8073952E-2,4.4992026E-2,-4.75094E-3,3.3315174E-2,-3.934631E-2,2.0075962E-2,-2.522084E-2],"categories":[],"categories_nodes":[],"categories_segments":[],"categories_sizes":[],"default_left":[0,0,0,0,0,0,0,0,0,0,0,0,0,0,0,0,0,0,0,0,0,0,0,0,0,0,0,0,0,0,0,0,0,0,0,0,0,0,0,0,0,0,0,0,0,0,0,0,0,0,0,0,0,0,0,0,0],"id":0,"left_children":[1,3,5,7,9,11,13,15,-1,17,19,21,23,-1,-1,25,27,-1,29,31,33,-1,35,37,-1,39,41,-1,-1,43,45,47,49,51,-1,53,-1,55,-1,-1,-1,-1,-1,-1,-1,-1,-1,-1,-1,-1,-1,-1,-1,-1,-1,-1,-1],"loss_changes":[4.913876E2,3.2003143E2,6.3931946E1,1.1021674E2,2.8655975E1,5.017401E1,3.9349365E0,4.7311913E1,0E0,7.548004E0,1.036528E1,5.912117E1,1.4653459E1,0E0,0E0,2.0071346E1,5.105362E0,0E0,5.3916054E0,1.1438976E1,8.9527225E-1,0E0,6.770355E0,8.23818E0,0E0,5.4164553E0,2.0066196E1,0E0,0E0,4.446583E0,5.8792114E-1,4.365781E0,1.3659391E0,9.594679E-1,0E0,2.704681E0,0E0,1.1988645E0,0E0,0E0,0E0,0E0,0E0,0E0,0E0,0E0,0E0,0E0,0E0,0E0,0E0,0E0,0E0,0E0,0E0,0E0,0E0],"parents":[2147483647,0,0,1,1,2,2,3,3,4,4,5,5,6,6,7,7,9,9,10,10,11,11,12,12,15,15,16,16,18,18,19,19,20,20,22,22,23,23,25,25,26,26,29,29,30,30,31,31,32,32,33,33,35,35,37,37],"right_children":[2,4,6,8,10,12,14,16,-1,18,20,22,24,-1,-1,26,28,-1,30,32,34,-1,36,38,-1,40,42,-1,-1,44,46,48,50,52,-1,54,-1,56,-1,-1,-1,-1,-1,-1,-1,-1,-1,-1,-1,-1,-1,-1,-1,-1,-1,-1,-1],"split_conditions":[1.9251482E0,8.064195E-1,1.2846655E0,1.9359168E0,1.365746E0,6.936821E-1,1.0662685E1,1.365746E0,2.4311507E-1,2.1618139E-2,2.709874E0,8.064195E-1,3.04644E0,2.8288823E-1,6.972977E-2,-6.5044576E-1,1.4930658E0,-5.5530753E-2,8.212654E-3,4.510636E-1,4.054002E0,2.629375E-1,3.04644E0,3.3819377E0,1.3384704E-1,-5.909386E-1,-2.5228792E-1,1.017239E-1,4.2237835E-3,8.0385673E-1,2.040117E0,8.0385673E-1,8.0385673E-1,1.3628156E0,9.455667E-2,2.687132E-1,9.946935E-2,1.6451299E-1,9.455667E-2,-3.4107886E-2,1.3549275E-2,4.851625E-2,1.0990492E-2,-3.3131666E-2,1.5118613E-3,-4.8417397E-2,-4.75094E-3,-1.0458955E-3,6.1657667E-2,-5.230117E-2,-1.8073952E-2,4.4992026E-2,-4.75094E-3,3.3315174E-2,-3.934631E-2,2.0075962E-2,-2.522084E-2],"split_indices":[1,5,0,0,4,4,0,4,0,4,4,5,1,0,0,4,0,0,0,0,4,0,1,4,0,0,0,0,0,1,0,1,1,0,0,0,0,0,0,0,0,0,0,0,0,0,0,0,0,0,0,0,0,0,0,0,0],"split_type":[0,0,0,0,0,0,0,0,0,0,0,0,0,0,0,0,0,0,0,0,0,0,0,0,0,0,0,0,0,0,0,0,0,0,0,0,0,0,0,0,0,0,0,0,0,0,0,0,0,0,0,0,0,0,0,0,0],"sum_hessian":[5.420801E2,5.07099E2,3.4981087E1,1.9835289E2,3.087461E2,2.2940495E1,1.2040591E1,1.9302968E2,5.323209E0,2.784545E2,3.0291592E1,1.2294077E1,1.0646418E1,1.1026647E1,1.0139445E0,1.6970897E2,2.3320724E1,1.7262405E2,1.0583046E2,2.484164E1,5.4499516E0,7.731327E0,4.5627503E0,8.745272E0,1.9011459E0,2.5728842E1,1.4398012E2,2.1799807E1,1.5209167E0,4.689493E1,5.8935524E1,1.0139445E1,1.4702195E1,4.436007E0,1.0139445E0,3.2953196E0,1.2674307E0,7.731327E0,1.0139445E0,1.7617287E1,8.111556E0,6.5272675E1,7.870744E1,3.4474113E1,1.242082E1,5.792158E1,1.0139445E0,6.083667E0,4.055778E0,8.111556E0,6.590639E0,3.4220626E0,1.0139445E0,1.2674307E0,2.027889E0,1.0139445E0,6.7173824E0],"tree_param":{"num_deleted":"0","num_feature":"7","num_nodes":"57","size_leaf_vector":"1"}},{"base_weights":[2.1199845E-2,1.0538979E0,-7.1900177E-1,7.322846E-1,3.4275253E0,-7.970454E-1,1.542284E-1,4.55717E-1,2.306528E0,2.2787085E-1,2.0209448E0,-8.543684E-1,1.5715034E0,-3.5878813E-1,6.050405E-1,1.6112977E-1,-7.856199E-3,1.3489142E-1,-1.8124415E-1,-9.251211E-1,-9.853008E-2,1.01182535E-1,-3.976306E-4,-3.33972E-2,-1.0602119E-2,7.820945E-1,-4.098115E-1,4.1800193E-2,-5.378542E-1,-1.7612465E-2,3.5175667E-3,-9.5298E-1,3.7374133E-1,4.3897146E-1,-7.0153046E-1,3.2921527E-2,7.108467E-2,3.4440752E-2,-4.053923E-2,-3.7884783E-2,8.086748E-3,-5.4027893E-2,-3.72016E-2,4.0615305E-2,-1.2845913E-2,2.6217017E-2,7.0211585E-3,-4.6673384E-2,-6.1468454E-3],"categories":[],"categories_nodes":[],"categories_segments":[],"categories_sizes":[],"default_left":[0,0,0,0,0,0,0,0,0,0,0,0,0,0,0,0,0,0,0,0,0,0,0,0,0,0,0,0,0,0,0,0,0,0,0,0,0,0,0,0,0,0,0,0,0,0,0,0,0],"id":1,"left_children":[1,3,5,7,9,11,-1,13,15,-1,17,19,21,23,25,-1,27,-1,29,31,33,-1,-1,-1,-1,35,37,-1,39,-1,-1,41,43,45,47,-1,-1,-1,-1,-1,-1,-1,-1,-1,-1,-1,-1,-1,-1],"loss_changes":[4.146369E2,1.7036853E2,9.625496E1,8.6335144E1,3.330487E1,4.3489014E1,0E0,2.1132214E1,6.309082E1,0E0,2.0930294E1,1.6151749E1,5.5059986E0,1.0955226E0,2.6499435E1,0E0,4.66838E0,0E0,2.038089E-1,1.0401611E1,9.097083E0,0E0,0E0,0E0,0E0,8.903061E0,1.0381481E1,0E0,1.1072172E0,0E0,0E0,6.448578E0,2.0197005E0,3.0746078E-1,1.6519427E0,0E0,0E0,0E0,0E0,0E0,0E0,0E0,0E0,0E0,0E0,0E0,0E0,0E0,0E0],"parents":[2147483647,0,0,1,1,2,2,3,3,4,4,5,5,7,7,8,8,10,10,11,11,12,12,13,13,14,14,16,16,18,18,19,19,20,20,25,25,26,26,28,28,31,31,32,32,33,33,34,34],"right_children":[2,4,6,8,10,12,-1,14,16,-1,18,20,22,24,26,-1,28,-1,30,32,34,-1,-1,-1,-1,36,38,-1,40,-1,-1,42,44,46,48,-1,-1,-1,-1,-1,-1,-1,-1,-1,-1,-1,-1,-1,-1],"split_conditions":[8.064195E-1,1.9251482E0,3.04644E0,1.365746E0,6.936821E-1,2.709874E0,1.542284E-1,-6.5044576E-1,7.994703E-1,2.2787085E-1,7.994703E-1,1.365746E0,1.2309479E0,-3.174349E-1,7.994703E-1,1.6112977E-1,1.6624254E0,1.3489142E-1,1.6624254E0,1.9251482E0,3.6799282E-1,1.01182535E-1,-3.976306E-4,-3.33972E-2,-1.0602119E-2,8.0385673E-1,2.1618139E-2,4.1800193E-2,3.819813E0,-1.7612465E-2,3.5175667E-3,2.1618139E-2,2.1618139E-2,-6.3484706E-2,8.0385673E-1,3.2921527E-2,7.108467E-2,3.4440752E-2,-4.053923E-2,-3.7884783E-2,8.086748E-3,-5.4027893E-2,-3.72016E-2,4.0615305E-2,-1.2845913E-2,2.6217017E-2,7.0211585E-3,-4.6673384E-2,-6.1468454E-3],"split_indices":[5,1,1,4,4,4,0,4,2,0,2,4,2,1,2,0,2,0,2,1,2,0,0,0,0,1,4,0,2,0,0,4,4,2,1,0,0,0,0,0,0,0,0,0,0,0,0,0,0],"split_type":[0,0,0,0,0,0,0,0,0,0,0,0,0,0,0,0,0,0,0,0,0,0,0,0,0,0,0,0,0,0,0,0,0,0,0,0,0,0,0,0,0,0,0,0,0,0,0,0,0],"sum_hessian":[5.404398E2,2.2546156E2,3.1497824E2,1.9971043E2,2.5751133E1,3.0941983E2,5.558393E0,1.709644E2,2.8746035E1,1.3037874E1,1.2713258E1,3.0273248E2,6.6873612E0,2.626975E1,1.4469464E2,2.0313309E1,8.432726E0,9.552158E0,3.1611E0,2.7661505E2,2.6117437E1,4.9804006E0,1.7069609E0,7.31249E0,1.895726E1,1.2339599E2,2.1298662E1,3.0303874E0,5.4023385E0,1.6437851E0,1.5173147E0,2.7106732E2,5.547728E0,1.39525E1,1.2164936E1,1.0510399E2,1.8291996E1,5.503035E0,1.5795627E1,4.047408E0,1.35493E0,1.6571498E2,1.0535233E2,3.102325E0,2.4454033E0,1.0261858E1,3.690643E0,8.246053E0,3.9188836E0],"tree_param":{"num_deleted":"0","num_feature":"7","num_nodes":"49","size_leaf_vector":"1"}},{"base_weights":[-2.2649705E-2,9.1519636E-1,-7.246719E-1,6.645498E-1,1.9051985E-1,-8.0530155E-1,1.3864186E-1,4.7902018E-1,2.4115107E0,-8.356244E-1,1.300013E-1,-5.742211E-1,5.746482E-1,1.568784E-1,1.7820727E0,-5.2349515E-2,-6.7776185E-1,-8.4280896E-1,-2.0051628E-1,5.19984E-1,1.1954169E0,1.0397197E0,1.5007666E-1,-7.976652E-1,-5.274308E-1,-1.273147E-2,-4.551826E-2,5.1930547E-3,-1.9688355E-2,3.309239E-2,8.8562975E-3,-9.194265E-4,7.378612E-2,-1.9191708E-3,1.3791732E-1,-4.3121975E-2,-2.5443662E-2,-4.19639E-3,-2.8558228E-2],"categories":[],"categories_nodes":[],"categories_segments":[],"categories_sizes":[],"default_left":[0,0,0,0,0,0,0,0,0,0,0,0,0,0,0,0,0,0,0,0,0,0,0,0,0,0,0,0,0,0,0,0,0,0,0,0,0,0,0],"id":2,"left_children":[1,3,5,7,-1,9,-1,11,13,15,-1,17,19,-1,21,-1,23,25,27,29,31,33,-1,35,37,-1,-1,-1,-1,-1,-1,-1,-1,-1,-1,-1,-1,-1,-1],"loss_changes":[3.5969965E2,1.671982E2,9.0339584E1,6.900549E1,0E0,3.3787155E1,0E0,2.0165188E1,3.7930145E0,9.441254E0,0E0,1.5265393E0,5.5218735E0,0E0,8.931778E0,0E0,2.7695236E0,1.4632654E-1,5.3358924E-1,8.061962E0,4.7504063E0,1.827459E1,0E0,1.3664017E0,1.5324821E0,0E0,0E0,0E0,0E0,0E0,0E0,0E0,0E0,0E0,0E0,0E0,0E0,0E0,0E0],"parents":[2147483647,0,0,1,1,2,2,3,3,5,5,7,7,8,8,9,9,11,11,12,12,14,14,16,16,17,17,18,18,19,19,20,20,21,21,23,23,24,24],"right_children":[2,4,6,8,-1,10,-1,12,14,16,-1,18,20,-1,22,-1,24,26,28,30,32,34,-1,36,38,-1,-1,-1,-1,-1,-1,-1,-1,-1,-1,-1,-1,-1,-1],"split_conditions":[8.064195E-1,1.7014663E0,3.04644E0,1.9251482E0,1.9051985E-1,2.2485175E0,1.3864186E-1,-7.73289E-1,1.6451299E-1,-4.0858826E-1,1.300013E-1,-8.514392E-1,8.939146E-1,1.568784E-1,3.0603306E0,-5.2349515E-2,8.0385673E-1,-9.295894E-1,-8.2538915E-1,6.0312767E-2,-3.174349E-1,3.04644E0,1.5007666E-1,5.813139E-1,-2.5228792E-1,-1.273147E-2,-4.551826E-2,5.1930547E-3,-1.9688355E-2,3.309239E-2,8.8562975E-3,-9.194265E-4,7.378612E-2,-1.9191708E-3,1.3791732E-1,-4.3121975E-2,-2.5443662E-2,-4.19639E-3,-2.8558228E-2],"split_indices":[5,0,1,1,0,0,0,0,0,0,0,0,0,0,6,0,1,0,0,0,1,1,0,0,0,0,0,0,0,0,0,0,0,0,0,0,0,0,0],"split_type":[0,0,0,0,0,0,0,0,0,0,0,0,0,0,0,0,0,0,0,0,0,0,0,0,0,0,0,0,0,0,0,0,0,0,0,0,0,0,0],"sum_hessian":[5.4432587E2,2.328941E2,3.1143173E2,2.1546976E2,1.7424353E1,3.0516635E2,6.2653847E0,1.9593536E2,1.9534399E1,3.0322092E2,1.9454275E0,1.5892424E1,1.8004294E2,7.220655E0,1.2313745E1,1.27233154E2,1.7598776E2,8.516321E0,7.376103E0,1.6716061E2,1.2882324E1,8.805783E0,3.5079613E0,9.550631E1,8.048146E1,1.3687162E0,7.1476045E0,3.044095E0,4.332008E0,1.1757954E2,4.9581074E1,2.592111E0,1.0290214E1,6.012057E0,2.7937267E0,7.6386826E1,1.9119486E1,7.4859247E0,7.299553E1],"tree_param":{"num_deleted":"0","num_feature":"7","num_nodes":"39","size_leaf_vector":"1"}},{"base_weights":[3.7136257E-2,9.1474956E-1,-6.754861E-1,7.046275E-1,3.2968273E0,-8.388097E-1,5.0098896E-1,6.480393E-1,1.7788734E-1,1.7305984E-1,1.4543556E-2,-8.928512E-1,1.8864051E0,1.593334E-1,1.3497508E0,-3.2391736E-1,7.789057E-1,-1.0292373E0,-6.793678E-1,7.659044E-1,1.1842781E-1,7.413404E-1,-2.1028306E-1,9.362966E-1,1.1229266E-1,-7.312327E-1,5.151811E-1,6.299404E-1,1.512394E0,-5.3016137E-2,-5.592874E-1,-4.741767E-1,-8.708906E-1,-7.2566355E-3,6.564907E-2,7.078394E-2,4.1834828E-1,-5.980684E-1,1.7528632E-1,1.252866E0,-3.1825814E-2,-3.81277E-2,-4.4780322E-3,8.863776E-3,5.945721E-2,5.6142993E-2,1.2114681E-2,4.462358E-2,9.455904E-2,-5.3052413E-3,-3.8320076E-2,1.9752008E-3,-2.6431998E-2,-5.0407737E-2,-3.449088E-2,-6.007644E-3,3.5280347E-2,-3.476654E-2,-1.1103781E-2,-1.1236604E-2,5.3887814E-2,3.0221388E-2,9.035244E-2],"categories":[],"categories_nodes":[],"categories_segments":[],"categories_sizes":[],"default_left":[0,0,0,0,0,0,0,0,0,0,0,0,0,0,0,0,0,0,0,0,0,0,0,0,0,0,0,0,0,0,0,0,0,0,0,0,0,0,0,0,0,0,0,0,0,0,0,0,0,0,0,0,0,0,0,0,0,0,0,0,0,0,0],"id":3,"left_children":[1,3,5,7,9,11,13,15,-1,-1,-1,17,19,21,23,25,27,29,31,33,-1,35,37,39,-1,41,43,45,47,-1,49,51,53,-1,-1,-1,55,57,59,61,-1,-1,-1,-1,-1,-1,-1,-1,-1,-1,-1,-1,-1,-1,-1,-1,-1,-1,-1,-1,-1,-1,-1],"loss_changes":[3.424852E2,1.2049803E2,5.8496094E1,3.4306267E1,8.68663E0,4.0826584E1,1.065083E1,2.8690529E1,0E0,0E0,0E0,6.908493E0,1.151453E0,6.1470146E0,1.8320465E0,9.685736E0,2.0609528E1,1.7077026E0,3.7054443E0,1.7502223E0,0E0,1.8119335E0,2.7680588E0,5.269797E0,0E0,3.0853462E-1,1.9498289E0,3.139759E1,5.9669724E0,0E0,1.0344429E0,1.4977331E0,6.2208176E-1,0E0,0E0,0E0,1.458862E0,1.786325E-1,3.7457163E0,1.7158232E0,0E0,0E0,0E0,0E0,0E0,0E0,0E0,0E0,0E0,0E0,0E0,0E0,0E0,0E0,0E0,0E0,0E0,0E0,0E0,0E0,0E0,0E0,0E0],"parents":[2147483647,0,0,1,1,2,2,3,3,4,4,5,5,6,6,7,7,11,11,12,12,13,13,14,14,15,15,16,16,17,17,18,18,19,19,21,21,22,22,23,23,25,25,26,26,27,27,28,28,30,30,31,31,32,32,36,36,37,37,38,38,39,39],"right_children":[2,4,6,8,10,12,14,16,-1,-1,-1,18,20,22,24,26,28,30,32,34,-1,36,38,40,-1,42,44,46,48,-1,50,52,54,-1,-1,-1,56,58,60,62,-1,-1,-1,-1,-1,-1,-1,-1,-1,-1,-1,-1,-1,-1,-1,-1,-1,-1,-1,-1,-1,-1,-1],"split_conditions":[8.064195E-1,1.7014663E0,1.365746E0,1.1545631E1,1.0792936E1,1.8317165E0,2.709874E0,-6.5044576E-1,1.7788734E-1,1.7305984E-1,1.4543556E-2,2.1618139E-2,3.0603306E0,4.2501354E-1,1.9359168E0,-5.909386E-1,1.365746E0,1.6451299E-1,3.426271E-2,2.482968E0,1.1842781E-1,-6.993751E-2,8.678645E-1,1.6754162E0,1.1229266E-1,-6.169887E-1,-3.5648814E-1,2.1618139E-2,4.510636E-1,-5.3016137E-2,3.2081333E-1,-4.867384E-1,6.936821E-1,-7.2566355E-3,6.564907E-2,7.078394E-2,1.6451299E-1,7.636643E-1,3.0603306E0,3.3819377E0,-3.1825814E-2,-3.81277E-2,-4.4780322E-3,8.863776E-3,5.945721E-2,5.6142993E-2,1.2114681E-2,4.462358E-2,9.455904E-2,-5.3052413E-3,-3.8320076E-2,1.9752008E-3,-2.6431998E-2,-5.0407737E-2,-3.449088E-2,-6.007644E-3,3.5280347E-2,-3.476654E-2,-1.1103781E-2,-1.1236604E-2,5.3887814E-2,3.0221388E-2,9.035244E-2],"split_indices":[5,0,4,3,0,0,4,4,0,0,0,4,6,0,0,0,4,0,0,0,0,0,0,0,0,0,0,4,0,0,0,0,4,0,0,0,0,0,6,4,0,0,0,0,0,0,0,0,0,0,0,0,0,0,0,0,0,0,0,0,0,0,0],"split_type":[0,0,0,0,0,0,0,0,0,0,0,0,0,0,0,0,0,0,0,0,0,0,0,0,0,0,0,0,0,0,0,0,0,0,0,0,0,0,0,0,0,0,0,0,0,0,0,0,0,0,0,0,0,0,0,0,0,0,0,0,0,0,0],"sum_hessian":[5.4563184E2,2.4438348E2,3.0124838E2,2.2576468E2,1.8618801E1,2.6477774E2,3.6470634E1,2.2257727E2,3.1874213E0,1.7509893E1,1.1089075E0,2.6028854E2,4.4891915E0,2.6850227E1,9.620407E0,2.6237057E1,1.9634021E2,1.5649132E2,1.03797226E2,2.1292987E0,2.3598926E0,1.0038174E1,1.6812054E1,7.982297E0,1.6381102E0,1.7749594E1,8.487463E0,1.6474144E2,3.1598772E1,1.4560388E2,1.0887448E1,5.178855E1,5.2008675E1,1.0745623E0,1.0547364E0,2.1553175E0,7.8828564E0,8.107164E0,8.704889E0,6.814188E0,1.1681092E0,1.6743904E1,1.0056897E0,6.4943953E0,1.9930677E0,7.168827E1,9.305317E1,1.3257573E1,1.83412E1,3.8894064E0,6.9980416E0,4.990871E0,4.679768E1,2.6984869E1,2.5023804E1,2.9445908E0,4.938266E0,5.766228E0,2.3409357E0,6.5517964E0,2.1530924E0,4.1034665E0,2.7107213E0],"tree_param":{"num_deleted":"0","num_feature":"7","num_nodes":"63","size_leaf_vector":"1"}},{"base_weights":[-3.9845915E-3,-1.5412815E-1,2.5322402E0,-3.100668E-1,9.038197E-1,2.9588199E0,9.4086E-1,-3.45011E-1,1.6487281E-1,1.4576151E0,-5.892059E-1,1.5578516E-1,1.533459E0,-7.034261E-1,2.380806E0,-2.7868474E-1,-1.0087721E0,9.96686E-1,2.369628E0,2.3783197E-1,-5.417758E-2,5.3744917E-3,1.0586857E-1,-4.248553E-2,-5.6841406E-3,1.4197534E-1,4.325522E-2,-6.7650014E-1,-1.0114467E-1,-1.0872742E-2,-1.0295424E0,7.141129E-1,1.3927904E0,1.2522638E-1,1.5038337E-2,-3.987187E-1,5.6972016E-2,-3.84189E-2,4.702981E-2,-7.935635E-3,4.9647715E-2,-5.351434E-2,-2.8829455E-2,2.6905438E-2,8.643647E-2,7.668692E-2,6.2896595E-3,1.62077E-2,-3.3246167E-2],"categories":[],"categories_nodes":[],"categories_segments":[],"categories_sizes":[],"default_left":[0,0,0,0,0,0,0,0,0,0,0,0,0,0,0,0,0,0,0,0,0,0,0,0,0,0,0,0,0,0,0,0,0,0,0,0,0,0,0,0,0,0,0,0,0,0,0,0,0],"id":4,"left_children":[1,3,5,7,9,11,13,15,-1,17,19,-1,21,23,25,27,29,31,33,35,-1,-1,-1,-1,-1,-1,-1,37,39,-1,41,43,45,-1,-1,47,-1,-1,-1,-1,-1,-1,-1,-1,-1,-1,-1,-1,-1],"loss_changes":[2.0702965E2,8.495561E1,1.7844025E1,5.7622494E1,5.5586964E1,4.7644043E-1,2.0355007E1,1.929575E1,0E0,1.805552E1,7.870685E0,0E0,3.3518696E0,2.8777242E-1,6.264763E-1,2.8582771E1,4.3381882E-1,2.809784E0,3.5949173E0,4.923016E0,0E0,0E0,0E0,0E0,0E0,0E0,0E0,1.9294842E1,1.789805E1,0E0,9.756088E-2,2.978778E0,2.1463985E0,0E0,0E0,1.2363503E0,0E0,0E0,0E0,0E0,0E0,0E0,0E0,0E0,0E0,0E0,0E0,0E0,0E0],"parents":[2147483647,0,0,1,1,2,2,3,3,4,4,5,5,6,6,7,7,9,9,10,10,12,12,13,13,14,14,15,15,16,16,17,17,18,18,19,19,27,27,28,28,30,30,31,31,32,32,35,35],"right_children":[2,4,6,8,10,12,14,16,-1,18,20,-1,22,24,26,28,30,32,34,36,-1,-1,-1,-1,-1,-1,-1,38,40,-1,42,44,46,-1,-1,48,-1,-1,-1,-1,-1,-1,-1,-1,-1,-1,-1,-1,-1],"split_conditions":[1.7014663E0,1.365746E0,1.6624254E0,1.1545631E1,7.994703E-1,2.709874E0,2.1964173E0,1.2309479E0,1.6487281E-1,7.636643E-1,1.6624254E0,1.5578516E-1,-6.3484706E-2,2.709874E0,4.2512903E0,-5.648886E-1,8.212654E-3,3.989635E-1,1.545166E0,8.157644E-1,-5.417758E-2,5.3744917E-3,1.0586857E-1,-4.248553E-2,-5.6841406E-3,1.4197534E-1,4.325522E-2,2.1618139E-2,6.0736394E-1,-1.0872742E-2,1.2586154E0,3.0603306E0,3.0603306E0,1.2522638E-1,1.5038337E-2,3.2081333E-1,5.6972016E-2,-3.84189E-2,4.702981E-2,-7.935635E-3,4.9647715E-2,-5.351434E-2,-2.8829455E-2,2.6905438E-2,8.643647E-2,7.668692E-2,6.2896595E-3,1.62077E-2,-3.3246167E-2],"split_indices":[0,4,2,3,2,4,0,2,0,0,2,0,2,4,2,0,0,0,0,0,0,0,0,0,0,0,0,4,0,0,0,6,6,0,0,0,0,0,0,0,0,0,0,0,0,0,0,0,0],"split_type":[0,0,0,0,0,0,0,0,0,0,0,0,0,0,0,0,0,0,0,0,0,0,0,0,0,0,0,0,0,0,0,0,0,0,0,0,0,0,0,0,0,0,0,0,0,0,0,0,0],"sum_hessian":[5.416485E2,5.1226196E2,2.9386488E1,4.4707175E2,6.519025E1,2.2496798E1,6.88969E0,4.436784E2,3.3933206E0,4.7569435E1,1.7620813E1,1.9197866E1,3.2989311E0,3.4554148E0,3.4342754E0,4.046624E2,3.901599E1,3.2989475E1,1.4579959E1,6.786285E0,1.0834528E1,1.3024096E0,1.9965214E0,2.4154527E0,1.039962E0,1.9659268E0,1.4683485E0,1.2400131E2,2.806611E2,1.2912378E0,3.7724754E1,2.0889883E1,1.2099591E1,1.34897785E1,1.0901802E0,4.304796E0,2.4814892E0,1.1783138E2,6.169932E0,2.67444E2,1.3217116E1,3.3360947E1,4.3638077E0,1.9105957E1,1.783927E0,1.0698859E1,1.4007318E0,1.1000222E0,3.204774E0],"tree_param":{"num_deleted":"0","num_feature":"7","num_nodes":"49","size_leaf_vector":"1"}},{"base_weights":[-6.0489844E-3,7.8514326E-1,-6.9356376E-1,9.6812034E-1,-2.2037786E-1,-9.3113285E-1,4.5439598E-4,6.311221E-1,1.7317547E0,7.729408E-1,-4.9868876E-1,-9.612756E-1,-3.6645198E-1,4.2089677E-1,-5.493545E-1,3.839421E-1,1.5292549E0,1.3058057E0,1.0485897E-1,5.118145E-1,6.305844E-2,-6.5614104E-1,7.2340295E-2,-1.0153985E0,-8.126449E-1,-5.68312E-1,-8.7984785E-2,2.9067013E-1,5.5452567E-2,-6.743838E-1,5.7543207E-2,-1.2727635E-2,5.346049E-1,-1.8111408E-3,1.7256777E0,1.4281139E0,-1.0868437E-2,3.9394014E-2,2.0934244E-1,-2.0300004E-1,-4.7911163E-2,-5.155908E-2,-5.3369164E-1,-3.4591593E-2,-5.1664084E-2,-4.213774E-2,-1.8842904E-1,6.7326943E-3,-3.0309523E-2,1.2648143E-1,1.0204535E0,-4.8304223E-2,-2.928407E-1,2.3829915E-2,1.1430438E-1,1.266735E-1,4.8573066E-2,6.259249E-2,9.518584E-2,-4.6911025E-3,2.1359934E-2,-2.4482887E-2,2.9741049E-2,-1.1996052E-2,-3.2319132E-2,1.0599813E-2,-3.2038834E-2,-1.2974561E-3,1.608899E-2,2.2185111E-2,8.2507074E-2,-2.4437338E-2,1.9423475E-2],"categories":[],"categories_nodes":[],"categories_segments":[],"categories_sizes":[],"default_left":[0,0,0,0,0,0,0,0,0,0,0,0,0,0,0,0,0,0,0,0,0,0,0,0,0,0,0,0,0,0,0,0,0,0,0,0,0,0,0,0,0,0,0,0,0,0,0,0,0,0,0,0,0,0,0,0,0,0,0,0,0,0,0,0,0,0,0,0,0,0,0,0,0],"id":5,"left_children":[1,3,5,7,9,11,13,15,17,19,21,23,25,27,29,31,33,35,-1,37,-1,39,-1,41,43,45,47,49,-1,51,-1,-1,53,-1,55,57,-1,-1,59,61,-1,-1,63,-1,-1,-1,65,-1,-1,67,69,-1,71,-1,-1,-1,-1,-1,-1,-1,-1,-1,-1,-1,-1,-1,-1,-1,-1,-1,-1,-1,-1],"loss_changes":[2.9377014E2,4.6412888E1,4.7643234E1,5.3625565E1,1.12979145E1,3.3118744E0,1.7496449E1,3.2512676E1,7.3058014E0,5.059166E-1,1.0580694E1,8.1381226E-1,6.5404105E-1,3.521237E0,7.7484093E0,1.1511913E1,9.854065E0,6.35532E0,0E0,4.669429E-1,0E0,3.8813696E0,0E0,5.5474854E-1,8.683853E-1,5.791342E-1,8.25415E-1,4.3546734E0,0E0,3.1876078E0,0E0,0E0,8.66391E0,0E0,1.47888565E1,1.4585495E-1,0E0,0E0,3.6851323E-1,3.3052814E0,0E0,0E0,6.619632E-2,0E0,0E0,0E0,9.068688E-1,0E0,0E0,9.517082E-1,1.7124E0,0E0,2.184705E0,0E0,0E0,0E0,0E0,0E0,0E0,0E0,0E0,0E0,0E0,0E0,0E0,0E0,0E0,0E0,0E0,0E0,0E0,0E0,0E0],"parents":[2147483647,0,0,1,1,2,2,3,3,4,4,5,5,6,6,7,7,8,8,9,9,10,10,11,11,12,12,13,13,14,14,15,15,16,16,17,17,19,19,21,21,23,23,24,24,25,25,26,26,27,27,29,29,32,32,34,34,35,35,38,38,39,39,42,42,46,46,49,49,50,50,52,52],"right_children":[2,4,6,8,10,12,14,16,18,20,22,24,26,28,30,32,34,36,-1,38,-1,40,-1,42,44,46,48,50,-1,52,-1,-1,54,-1,56,58,-1,-1,60,62,-1,-1,64,-1,-1,-1,66,-1,-1,68,70,-1,72,-1,-1,-1,-1,-1,-1,-1,-1,-1,-1,-1,-1,-1,-1,-1,-1,-1,-1,-1,-1],"split_conditions":[8.064195E-1,7.994703E-1,6.936821E-1,6.936821E-1,2.1618139E-2,3.0603306E0,3.6799282E-1,-6.3484706E-2,1.365746E0,3.0603306E0,2.709874E0,2.1618139E-2,2.1618139E-2,3.0603306E0,3.3819377E0,-6.5044576E-1,-6.5044576E-1,3.6799282E-1,1.0485897E-1,1.2309479E0,6.305844E-2,1.6624254E0,7.2340295E-2,1.2309479E0,3.6799282E-1,-6.3484706E-2,3.6799282E-1,2.709874E0,5.5452567E-2,1.365746E0,5.7543207E-2,-1.2727635E-2,1.1545631E1,-1.8111408E-3,2.1618139E-2,3.0603306E0,-1.0868437E-2,3.9394014E-2,2.0939028E0,1.365746E0,-4.7911163E-2,-5.155908E-2,1.6624254E0,-3.4591593E-2,-5.1664084E-2,-4.213774E-2,7.994703E-1,6.7326943E-3,-3.0309523E-2,1.365746E0,-6.3484706E-2,-4.8304223E-2,3.0603306E0,2.3829915E-2,1.1430438E-1,1.266735E-1,4.8573066E-2,6.259249E-2,9.518584E-2,-4.6911025E-3,2.1359934E-2,-2.4482887E-2,2.9741049E-2,-1.1996052E-2,-3.2319132E-2,1.0599813E-2,-3.2038834E-2,-1.2974561E-3,1.608899E-2,2.2185111E-2,8.2507074E-2,-2.4437338E-2,1.9423475E-2],"split_indices":[5,2,4,4,4,6,2,2,4,6,4,4,4,6,4,4,4,2,0,2,0,2,0,2,2,2,2,4,0,4,0,0,3,0,4,6,0,0,2,4,0,0,2,0,0,0,2,0,0,4,2,0,6,0,0,0,0,0,0,0,0,0,0,0,0,0,0,0,0,0,0,0,0],"split_type":[0,0,0,0,0,0,0,0,0,0,0,0,0,0,0,0,0,0,0,0,0,0,0,0,0,0,0,0,0,0,0,0,0,0,0,0,0,0,0,0,0,0,0,0,0,0,0,0,0,0,0,0,0,0,0,0,0,0,0,0,0,0,0,0,0,0,0,0,0,0,0,0,0],"sum_hessian":[5.3806085E2,2.5010172E2,2.8795917E2,2.1162839E2,3.847333E1,2.142706E2,7.368855E1,1.4809798E2,6.353041E1,8.031362E0,3.044197E1,2.0274567E2,1.1524929E1,4.1889698E1,3.1798851E1,1.1725506E2,3.0842918E1,3.1447607E1,3.20828E1,6.5672245E0,1.4641371E0,2.877583E1,1.6661403E0,1.4434988E2,5.839579E1,6.0780854E0,5.4468436E0,3.6419964E1,5.4697356E0,3.018266E1,1.6161929E0,2.2254221E1,9.500084E1,3.5294015E0,2.7313517E1,2.9167885E1,2.2797225E0,2.594461E0,3.9727638E0,1.2178846E1,1.6596983E1,1.3866583E2,5.684047E0,4.0406303E1,1.7989487E1,2.8213613E0,3.256724E0,4.3276796E0,1.1191639E0,3.068882E1,5.731144E0,1.6236979E1,1.394568E1,9.318674E1,1.8141007E0,1.2049261E1,1.5264255E1,2.3930925E1,5.236961E0,1.8992058E0,2.0735579E0,9.243798E0,2.9350476E0,2.4434118E0,3.2406356E0,2.0093544E0,1.2473699E0,1.7723074E1,1.2965744E1,3.881027E0,1.8501171E0,1.105075E1,2.8949304E0],"tree_param":{"num_deleted":"0","num_feature":"7","num_nodes":"73","size_leaf_vector":"1"}},{"base_weights":[-1.4507422E-2,7.5095946E-1,-6.672196E-1,5.227986E-1,2.1726086E0,-8.0497026E-1,1.6061705E0,2.406919E-1,1.1310129E0,1.4980325E-1,1.2001483E0,-8.574943E-1,9.8575526E-1,9.184452E-1,1.1016051E-1,7.945043E-2,7.852212E-2,1.4013577E0,5.162162E-1,8.2104146E-1,1.1174431E-1,-1.0545243E0,-6.184979E-1,2.6286623E-2,8.447807E-2,5.2933086E-2,1.1666036E-2,2.8308535E-1,-2.5022128E-1,1.2175266E0,1.1501395E-1,-3.8355943E-3,1.0787481E0,2.8520413E-2,8.8599704E-2,-2.7389739E-2,-1.0665053E0,-6.959356E-1,-2.9184094E-1,-1.7907362E-2,2.7782032E-2,3.242511E-3,-1.8257534E-2,6.6568054E-2,1.212181E-2,6.621593E-2,-3.3599865E-2,-1.4267844E-2,5.5571806E-2,-5.5610474E-2,-4.2110287E-2,-3.2552045E-2,-5.1800795E-2,-2.89159E-2,2.9845843E-3],"categories":[],"categories_nodes":[],"categories_segments":[],"categories_sizes":[],"default_left":[0,0,0,0,0,0,0,0,0,0,0,0,0,0,0,0,0,0,0,0,0,0,0,0,0,0,0,0,0,0,0,0,0,0,0,0,0,0,0,0,0,0,0,0,0,0,0,0,0,0,0,0,0,0,0],"id":6,"left_children":[1,3,5,7,9,11,13,15,17,-1,19,21,23,25,-1,27,-1,29,31,33,-1,35,37,-1,-1,-1,-1,39,41,43,-1,-1,45,47,-1,-1,49,51,53,-1,-1,-1,-1,-1,-1,-1,-1,-1,-1,-1,-1,-1,-1,-1,-1],"loss_changes":[2.6645532E2,7.848308E1,9.143376E1,3.6245758E1,2.3333847E1,2.643451E1,4.8657227E0,3.1321682E1,1.0440308E1,0E0,4.868204E0,1.1819199E1,1.7723756E0,6.667671E-1,0E0,8.922739E0,0E0,4.812332E0,7.4532943E0,1.0565831E1,0E0,2.8851318E-1,2.8853836E0,0E0,0E0,0E0,0E0,1.4526497E1,1.8660345E0,4.1585197E0,0E0,0E0,5.793726E0,3.2742054E0,0E0,0E0,4.9205017E-1,8.213997E-1,2.564232E0,0E0,0E0,0E0,0E0,0E0,0E0,0E0,0E0,0E0,0E0,0E0,0E0,0E0,0E0,0E0,0E0],"parents":[2147483647,0,0,1,1,2,2,3,3,4,4,5,5,6,6,7,7,8,8,10,10,11,11,12,12,13,13,15,15,17,17,18,18,19,19,21,21,22,22,27,27,28,28,29,29,32,32,33,33,36,36,37,37,38,38],"right_children":[2,4,6,8,10,12,14,16,18,-1,20,22,24,26,-1,28,-1,30,32,34,-1,36,38,-1,-1,-1,-1,40,42,44,-1,-1,46,48,-1,-1,50,52,54,-1,-1,-1,-1,-1,-1,-1,-1,-1,-1,-1,-1,-1,-1,-1,-1],"split_conditions":[8.064195E-1,1.9251482E0,1.9251482E0,6.936821E-1,6.936821E-1,2.709874E0,3.04644E0,8.0385673E-1,8.0385673E-1,1.4980325E-1,2.709874E0,2.1618139E-2,4.054002E0,2.0378098E0,1.1016051E-1,2.1618139E-2,7.852212E-2,2.709874E0,1.365746E0,3.0603306E0,1.1174431E-1,-6.5044576E-1,1.365746E0,2.6286623E-2,8.447807E-2,5.2933086E-2,1.1666036E-2,-6.5044576E-1,-3.174349E-1,3.0603306E0,1.1501395E-1,-3.8355943E-3,3.3819377E0,3.04644E0,8.8599704E-2,-2.7389739E-2,8.0385673E-1,3.0603306E0,8.0385673E-1,-1.7907362E-2,2.7782032E-2,3.242511E-3,-1.8257534E-2,6.6568054E-2,1.212181E-2,6.621593E-2,-3.3599865E-2,-1.4267844E-2,5.5571806E-2,-5.5610474E-2,-4.2110287E-2,-3.2552045E-2,-5.1800795E-2,-2.89159E-2,2.9845843E-3],"split_indices":[5,1,1,4,4,4,1,1,1,0,4,4,4,4,0,4,0,4,4,6,0,4,4,0,0,0,0,4,1,6,0,0,4,1,0,0,1,6,1,0,0,0,0,0,0,0,0,0,0,0,0,0,0,0,0],"split_type":[0,0,0,0,0,0,0,0,0,0,0,0,0,0,0,0,0,0,0,0,0,0,0,0,0,0,0,0,0,0,0,0,0,0,0,0,0,0,0,0,0,0,0,0,0,0,0,0,0,0,0,0,0,0,0],"sum_hessian":[5.313029E2,2.4446112E2,2.8684183E2,2.1183191E2,3.262922E1,2.710633E2,1.57785225E1,1.4566443E2,6.616748E1,1.654142E1,1.6087797E1,2.6384555E2,7.2177453E0,8.511976E0,7.2665462E0,1.3085687E2,1.4807554E1,4.5069622E1,2.1097857E1,1.3086608E1,3.0011897E0,1.4274963E2,1.21095924E2,5.421271E0,1.7964743E0,6.6132984E0,1.8986775E0,8.0978546E1,4.987833E1,3.937234E1,5.697283E0,1.0691878E1,1.0405978E1,7.699696E0,5.3869123E0,4.37635E0,1.3837328E2,9.697615E1,2.4119766E1,2.4059782E1,5.6918766E1,1.34478E1,3.643053E1,3.492924E1,4.4430966E0,9.339526E0,1.0664515E0,6.540468E0,1.1592276E0,1.1166203E2,2.6711248E1,8.8241554E1,8.734597E0,1.2934129E1,1.1185637E1],"tree_param":{"num_deleted":"0","num_feature":"7","num_nodes":"55","size_leaf_vector":"1"}},{"base_weights":[1.1235701E-2,7.2383237E-1,-6.455663E-1,5.659701E-1,2.2835987E0,-7.2649205E-1,1.6958092E0,7.096024E-1,-8.636725E-1,1.2934768E-1,5.967103E-2,-9.195051E-1,-1.5606576E-1,9.621128E-2,-5.8758124E-3,4.5336756E-1,1.98118E0,-3.2105157E-1,-4.780635E-2,3.6581703E-2,-3.551276E-2,-5.474478E-2,-8.126904E-1,3.3208427E-1,-7.8990644E-1,-2.3124021E-1,5.842426E-1,1.0860024E-1,1.6574804E-1,9.683167E-3,-3.847234E-2,-7.388566E-1,-9.895012E-1,1.2959822E-1,1.5031314E0,-3.4449914E-1,-9.243733E-1,-2.8474076E-2,3.4164158E-3,4.8409533E-2,1.37886E-2,-1.2186598E-2,3.5647955E-2,-4.3123826E-2,-2.7467683E-2,-5.1665436E-2,-2.4377288E-2,2.5669148E-3,4.156257E-2,1.08861044E-1,3.514574E-2,-4.1587632E-2,4.4800922E-2,-5.742462E-3,-4.795542E-2],"categories":[],"categories_nodes":[],"categories_segments":[],"categories_sizes":[],"default_left":[0,0,0,0,0,0,0,0,0,0,0,0,0,0,0,0,0,0,0,0,0,0,0,0,0,0,0,0,0,0,0,0,0,0,0,0,0,0,0,0,0,0,0,0,0,0,0,0,0,0,0,0,0,0,0],"id":7,"left_children":[1,3,5,7,9,11,13,15,17,-1,19,21,23,-1,-1,25,27,29,-1,-1,-1,-1,31,33,35,37,39,-1,41,-1,-1,43,45,47,49,51,53,-1,-1,-1,-1,-1,-1,-1,-1,-1,-1,-1,-1,-1,-1,-1,-1,-1,-1],"loss_changes":[2.5286148E2,6.2509552E1,5.450289E1,4.920359E1,1.5689705E1,2.9853577E1,4.2407455E0,6.934187E1,7.9945374E-1,0E0,2.5076563E0,2.9201355E0,2.1947662E1,0E0,0E0,1.6327194E1,1.2062454E1,1.237497E0,0E0,0E0,0E0,0E0,9.6956635E-1,9.360571E0,1.525568E0,3.0502992E0,1.7735317E1,0E0,1.1805931E0,0E0,0E0,1.7714958E0,2.7523804E-1,1.9039977E0,1.6231947E0,6.0243144E0,5.381298E-1,0E0,0E0,0E0,0E0,0E0,0E0,0E0,0E0,0E0,0E0,0E0,0E0,0E0,0E0,0E0,0E0,0E0,0E0],"parents":[2147483647,0,0,1,1,2,2,3,3,4,4,5,5,6,6,7,7,8,8,10,10,11,11,12,12,15,15,16,16,17,17,22,22,23,23,24,24,25,25,26,26,28,28,31,31,32,32,33,33,34,34,35,35,36,36],"right_children":[2,4,6,8,10,12,14,16,18,-1,20,22,24,-1,-1,26,28,30,-1,-1,-1,-1,32,34,36,38,40,-1,42,-1,-1,44,46,48,50,52,54,-1,-1,-1,-1,-1,-1,-1,-1,-1,-1,-1,-1,-1,-1,-1,-1,-1,-1],"split_conditions":[8.064195E-1,1.7014663E0,1.8317165E0,1.2309479E0,2.956858E0,6.936821E-1,3.819813E0,4.2501354E-1,2.1618139E-2,1.2934768E-1,3.0603306E0,-5.648886E-1,3.6799282E-1,9.621128E-2,-5.8758124E-3,-6.690888E-1,7.994703E-1,2.0939028E0,-4.780635E-2,3.6581703E-2,-3.551276E-2,-5.474478E-2,3.6799282E-1,8.678645E-1,7.994703E-1,-6.5044576E-1,2.1618139E-2,1.0860024E-1,7.115642E-1,9.683167E-3,-3.847234E-2,2.1618139E-2,3.0603306E0,2.709874E0,1.076265E0,5.292138E-1,1.9056305E-1,-2.8474076E-2,3.4164158E-3,4.8409533E-2,1.37886E-2,-1.2186598E-2,3.5647955E-2,-4.3123826E-2,-2.7467683E-2,-5.1665436E-2,-2.4377288E-2,2.5669148E-3,4.156257E-2,1.08861044E-1,3.514574E-2,-4.1587632E-2,4.4800922E-2,-5.742462E-3,-4.795542E-2],"split_indices":[5,0,0,2,2,4,2,0,4,0,6,0,2,0,0,0,2,2,0,0,0,0,2,0,2,4,4,0,0,0,0,4,6,4,0,0,0,0,0,0,0,0,0,0,0,0,0,0,0,0,0,0,0,0,0],"split_type":[0,0,0,0,0,0,0,0,0,0,0,0,0,0,0,0,0,0,0,0,0,0,0,0,0,0,0,0,0,0,0,0,0,0,0,0,0,0,0,0,0,0,0,0,0,0,0,0,0,0,0,0,0,0,0],"sum_hessian":[5.382636E2,2.5811737E2,2.8014624E2,2.3563216E2,2.2485216E1,2.714536E2,8.692626E0,2.1457776E2,2.1054392E1,1.9642626E1,2.8425899E0,2.0236734E2,6.9086266E1,7.665837E0,1.0267887E0,1.797192E2,3.4858574E1,3.7162206E0,1.7338171E1,1.544416E0,1.298174E0,7.30948E1,1.2927254E2,3.9297512E1,2.9788755E1,2.8719664E1,1.5099953E2,3.1365274E1,3.4932983E0,1.9946499E0,1.7215707E0,9.484525E1,3.4427284E1,3.4451214E1,4.846299E0,7.73369E0,2.2055067E1,1.3065956E1,1.5653708E1,6.63171E1,8.468243E1,2.315325E0,1.1779735E0,5.5251415E1,3.959384E1,3.0690266E1,3.737018E0,3.1959707E1,2.4915059E0,1.6964488E0,3.1498501E0,5.7892756E0,1.9444141E0,1.0845821E0,2.0970484E1],"tree_param":{"num_deleted":"0","num_feature":"7","num_nodes":"55","size_leaf_vector":"1"}},{"base_weights":[6.578333E-3,-1.0813937E-1,2.100237E0,-2.9894552E-1,3.6564612E-1,2.2379327E0,-1.5149205E-2,-3.2717407E-1,1.13075964E-1,9.0827596E-1,-6.2014663E-1,1.1537748E-1,3.546191E-2,-6.8109995E-1,-1.8963796E-1,5.614735E-1,1.269676E0,-1.3689827E-2,-8.449809E-1,-7.417236E-1,2.5288804E-2,-9.246455E-2,-7.7441233E-1,1.0420622E-1,4.6163037E-1,1.0720815E-1,1.1860595E0,-7.1679294E-1,9.38221E-1,-8.851891E-1,7.265822E-3,-2.7416904E-2,-4.0963028E-2,-8.47211E-3,4.5966066E-2,6.6571005E-2,-4.369242E-2,3.191718E-2,1.0001183E-3,4.1258648E-2,7.1894236E-2,-4.3591175E-2,-2.832409E-3,1.9247668E-2,6.9201775E-2,-3.3255514E-2,-5.0498247E-2],"categories":[],"categories_nodes":[],"categories_segments":[],"categories_sizes":[],"default_left":[0,0,0,0,0,0,0,0,0,0,0,0,0,0,0,0,0,0,0,0,0,0,0,0,0,0,0,0,0,0,0,0,0,0,0,0,0,0,0,0,0,0,0,0,0,0,0],"id":8,"left_children":[1,3,5,7,9,11,-1,13,-1,15,17,-1,-1,19,21,23,25,27,29,31,-1,33,35,-1,37,-1,39,41,43,45,-1,-1,-1,-1,-1,-1,-1,-1,-1,-1,-1,-1,-1,-1,-1,-1,-1],"loss_changes":[1.2797478E2,4.5780445E1,9.837257E0,2.6811375E1,7.839188E1,1.1620941E0,0E0,1.7280361E1,0E0,1.1099457E1,7.1126995E0,0E0,0E0,7.549038E0,1.4642931E1,6.6221027E0,7.7362823E-1,1.0810895E1,1.6457462E0,9.791908E-1,0E0,1.7538446E1,8.861425E0,0E0,3.741187E0,0E0,2.7793808E0,9.00301E-1,1.1613421E0,3.3758354E-1,0E0,0E0,0E0,0E0,0E0,0E0,0E0,0E0,0E0,0E0,0E0,0E0,0E0,0E0,0E0,0E0,0E0],"parents":[2147483647,0,0,1,1,2,2,3,3,4,4,5,5,7,7,9,9,10,10,13,13,14,14,15,15,16,16,17,17,18,18,19,19,21,21,22,22,24,24,26,26,27,27,28,28,29,29],"right_children":[2,4,6,8,10,12,-1,14,-1,16,18,-1,-1,20,22,24,26,28,30,32,-1,34,36,-1,38,-1,40,42,44,46,-1,-1,-1,-1,-1,-1,-1,-1,-1,-1,-1,-1,-1,-1,-1,-1,-1],"split_conditions":[1.8838167E0,6.936821E-1,5.9772005E0,1.1545631E1,3.6799282E-1,3.819813E0,-1.5149205E-2,-5.909386E-1,1.13075964E-1,2.4266316E-1,7.994703E-1,1.1537748E-1,3.546191E-2,2.1618139E-2,7.994703E-1,-4.867384E-1,2.687132E-1,5.031637E-1,3.3819377E0,-7.47239E-1,2.5288804E-2,3.989635E-1,-3.0438802E-1,1.0420622E-1,6.0312767E-2,1.0720815E-1,6.0736394E-1,3.7291345E-1,2.0378098E0,1.6624254E0,7.265822E-3,-2.7416904E-2,-4.0963028E-2,-8.47211E-3,4.5966066E-2,6.6571005E-2,-4.369242E-2,3.191718E-2,1.0001183E-3,4.1258648E-2,7.1894236E-2,-4.3591175E-2,-2.832409E-3,1.9247668E-2,6.9201775E-2,-3.3255514E-2,-5.0498247E-2],"split_indices":[0,4,2,3,2,2,0,0,0,0,2,0,0,4,2,0,0,0,4,0,0,0,0,0,0,0,0,0,4,2,0,0,0,0,0,0,0,0,0,0,0,0,0,0,0,0,0],"split_type":[0,0,0,0,0,0,0,0,0,0,0,0,0,0,0,0,0,0,0,0,0,0,0,0,0,0,0,0,0,0,0,0,0,0,0,0,0,0,0,0,0,0,0,0,0,0,0],"sum_hessian":[5.3088367E2,5.042051E2,2.6678532E1,3.597095E2,1.4449564E2,2.5297836E1,1.3806968E0,3.5664972E2,3.0597658E0,9.3246635E1,5.1248997E1,2.3708652E1,1.5891832E0,9.870277E1,2.5794696E2,4.8887444E1,4.4359196E1,1.4147937E1,3.710106E1,9.426303E1,4.4397397E0,2.2218417E2,3.576277E1,1.7853959E0,4.7102047E1,1.720703E0,4.2638493E1,8.279503E0,5.8684344E0,3.5755447E1,1.34561E0,2.9287857E1,6.4975174E1,2.0724901E2,1.4935174E1,1.0538969E0,3.4708878E1,3.332281E1,1.3779235E1,1.928222E1,2.335627E1,6.445229E0,1.8342736E0,3.4501677E0,2.418267E0,1.522758E1,2.0527868E1],"tree_param":{"num_deleted":"0","num_feature":"7","num_nodes":"47","size_leaf_vector":"1"}},{"base_weights":[4.9161734E-3,-1.2333862E-1,1.8012325E0,-2.4089465E-1,5.8369213E-1,2.052189E0,2.3363881E-1,-2.7228177E-1,1.180285E-1,8.548817E-1,-4.8261087E-2,1.1076396E0,1.1218747E-1,-4.4615753E-2,1.3316447E0,-1.9033168E-1,-8.4407634E-1,5.862681E-1,1.404621E0,8.156792E-2,1.3493863E-1,8.1801586E-2,1.5804296E-2,-6.148723E-1,-3.919755E-2,-4.5543304E-1,-4.9996283E-2,7.765597E-1,-2.502759E-1,1.4962543E0,5.121092E-3,-3.29502E-2,3.4982506E-2,-3.4781493E-2,4.6126183E-2,-4.6573505E-3,5.2394725E-2,1.0371159E-3,-3.5194438E-2,4.4177305E-2,1.5950719E-2,1.9291503E-2,-2.2623109E-2,8.484798E-2,3.2730013E-2],"categories":[],"categories_nodes":[],"categories_segments":[],"categories_sizes":[],"default_left":[0,0,0,0,0,0,0,0,0,0,0,0,0,0,0,0,0,0,0,0,0,0,0,0,0,0,0,0,0,0,0,0,0,0,0,0,0,0,0,0,0,0,0,0,0],"id":9,"left_children":[1,3,5,7,9,11,13,15,-1,17,-1,19,-1,-1,21,23,25,27,29,-1,31,-1,-1,33,35,37,-1,39,41,43,-1,-1,-1,-1,-1,-1,-1,-1,-1,-1,-1,-1,-1,-1,-1],"loss_changes":[1.2288554E2,4.1522247E1,1.350396E1,3.5558006E1,3.0762753E1,3.0354462E0,8.647677E0,1.9679613E1,0E0,8.211208E0,0E0,3.4067116E0,0E0,0E0,5.511923E-1,2.3820126E1,2.7417755E0,7.0102253E0,2.1576004E0,0E0,2.067001E0,0E0,0E0,1.2746395E1,1.623325E1,2.0193384E0,0E0,1.437582E0,1.2923377E0,1.9330788E0,0E0,0E0,0E0,0E0,0E0,0E0,0E0,0E0,0E0,0E0,0E0,0E0,0E0,0E0,0E0],"parents":[2147483647,0,0,1,1,2,2,3,3,4,4,5,5,6,6,7,7,9,9,11,11,14,14,15,15,16,16,17,17,18,18,20,20,23,23,24,24,25,25,27,27,28,28,29,29],"right_children":[2,4,6,8,10,12,14,16,-1,18,-1,20,-1,-1,22,24,26,28,30,-1,32,-1,-1,34,36,38,-1,40,42,44,-1,-1,-1,-1,-1,-1,-1,-1,-1,-1,-1,-1,-1,-1,-1],"split_conditions":[1.7014663E0,1.365746E0,2.956858E0,1.1545631E1,1.6624254E0,1.8838167E0,2.6392684E0,7.994703E-1,1.180285E-1,7.636643E-1,-4.8261087E-2,-6.3484706E-2,1.1218747E-1,-4.4615753E-2,3.0603306E0,-5.909386E-1,2.1618139E-2,3.6799282E-1,1.5191159E0,8.156792E-2,2.0378098E0,8.1801586E-2,1.5804296E-2,2.1618139E-2,6.0736394E-1,1.3846293E-1,-4.9996283E-2,5.031637E-1,2.4266316E-1,3.3819377E0,5.121092E-3,-3.29502E-2,3.4982506E-2,-3.4781493E-2,4.6126183E-2,-4.6573505E-3,5.2394725E-2,1.0371159E-3,-3.5194438E-2,4.4177305E-2,1.5950719E-2,1.9291503E-2,-2.2623109E-2,8.484798E-2,3.2730013E-2],"split_indices":[0,4,2,3,2,0,0,2,0,0,0,2,0,0,6,0,4,2,0,0,4,0,0,4,0,0,0,0,0,4,0,0,0,0,0,0,0,0,0,0,0,0,0,0,0],"split_type":[0,0,0,0,0,0,0,0,0,0,0,0,0,0,0,0,0,0,0,0,0,0,0,0,0,0,0,0,0,0,0,0,0,0,0,0,0,0,0,0,0,0,0,0,0],"sum_hessian":[5.3142505E2,4.9687976E2,3.454527E1,4.2660812E2,7.0271645E1,2.9511614E1,5.0336556E0,4.2240704E2,4.201079E0,6.0182713E1,1.0088935E1,6.1195297E0,2.3392084E1,2.577688E0,2.4559677E0,3.7062204E2,5.1784992E1,4.1816692E1,1.836602E1,3.5376537E0,2.5818763E0,1.4195331E0,1.0364347E0,9.649529E1,2.7412674E2,1.5945006E1,3.583999E1,3.4125706E1,7.690987E0,1.7019379E1,1.3466418E0,1.0037305E0,1.5781456E0,9.2199684E1,4.2956114E0,2.6203687E2,1.2089872E1,5.781344E0,1.0163662E1,2.6903812E1,7.221893E0,1.6359068E0,6.0550804E0,1.2921767E1,4.0976114E0],"tree_param":{"num_deleted":"0","num_feature":"7","num_nodes":"45","size_leaf_vector":"1"}},{"base_weights":[1.8995306E-3,-1.201093E-1,1.693845E0,-2.3457414E-1,5.304093E-1,9.841534E-2,2.2595328E-1,-2.6394913E-1,1.0938656E-1,8.359853E-1,-7.465768E-1,-4.4676613E-2,1.3104246E0,-1.8352199E-1,-8.1459594E-1,6.198973E-1,1.3075348E0,-3.5229575E-2,-4.7978487E-2,7.960061E-2,1.4769954E-2,-5.8280313E-1,-1.9992089E-2,6.3524954E-2,-8.842092E-1,8.053846E-1,1.3134891E-1,1.4236386E0,2.5063215E-4,-3.0503651E-2,3.228924E-1,-3.387321E-2,4.317538E-2,-4.463564E-3,4.2817727E-2,-3.21549E-2,-4.8236597E-2,4.3844506E-2,1.2560429E-2,1.45631E-2,-3.4057062E-2,7.3814325E-2,2.3858676E-2,-8.094263E-3,3.12063E-2],"categories":[],"categories_nodes":[],"categories_segments":[],"categories_sizes":[],"default_left":[0,0,0,0,0,0,0,0,0,0,0,0,0,0,0,0,0,0,0,0,0,0,0,0,0,0,0,0,0,0,0,0,0,0,0,0,0,0,0,0,0,0,0,0,0],"id":10,"left_children":[1,3,5,7,9,-1,11,13,-1,15,17,-1,19,21,23,25,27,29,-1,-1,-1,31,33,-1,35,37,39,41,-1,-1,43,-1,-1,-1,-1,-1,-1,-1,-1,-1,-1,-1,-1,-1,-1],"loss_changes":[1.08186325E2,3.652426E1,1.375676E1,3.020569E1,2.928636E1,0E0,9.2836485E0,1.810967E1,0E0,5.2768517E0,2.1951008E0,0E0,6.157441E-1,2.356214E1,8.7080345E0,3.7789917E0,2.6955986E0,1.1085428E0,0E0,0E0,0E0,1.4942337E1,1.5689962E1,0E0,3.7275696E-1,1.0032768E0,1.8864107E0,1.1304474E-1,0E0,0E0,5.949398E-1,0E0,0E0,0E0,0E0,0E0,0E0,0E0,0E0,0E0,0E0,0E0,0E0,0E0,0E0],"parents":[2147483647,0,0,1,1,2,2,3,3,4,4,6,6,7,7,9,9,10,10,12,12,13,13,14,14,15,15,16,16,17,17,21,21,22,22,24,24,25,25,26,26,27,27,30,30],"right_children":[2,4,6,8,10,-1,12,14,-1,16,18,-1,20,22,24,26,28,30,-1,-1,-1,32,34,-1,36,38,40,42,-1,-1,44,-1,-1,-1,-1,-1,-1,-1,-1,-1,-1,-1,-1,-1,-1],"split_conditions":[1.7014663E0,1.365746E0,2.5253804E0,1.1545631E1,1.2309479E0,9.841534E-2,2.2485175E0,7.994703E-1,1.0938656E-1,8.4181446E-1,1.6624254E0,-4.4676613E-2,4.2512903E0,-5.648886E-1,-3.0438802E-1,5.031637E-1,1.5191159E0,5.813139E-1,-4.7978487E-2,7.960061E-2,1.4769954E-2,2.1618139E-2,4.7711366E-1,6.3524954E-2,2.1618139E-2,3.6799282E-1,7.994703E-1,1.3628156E0,2.5063215E-4,-3.0503651E-2,2.0378098E0,-3.387321E-2,4.317538E-2,-4.463564E-3,4.2817727E-2,-3.21549E-2,-4.8236597E-2,4.3844506E-2,1.2560429E-2,1.45631E-2,-3.4057062E-2,7.3814325E-2,2.3858676E-2,-8.094263E-3,3.12063E-2],"split_indices":[0,4,2,3,2,0,0,2,0,0,2,0,2,0,0,0,0,0,0,0,0,4,0,0,4,2,2,0,0,0,4,0,0,0,0,0,0,0,0,0,0,0,0,0,0],"split_type":[0,0,0,0,0,0,0,0,0,0,0,0,0,0,0,0,0,0,0,0,0,0,0,0,0,0,0,0,0,0,0,0,0,0,0,0,0,0,0,0,0,0,0,0,0],"sum_hessian":[5.22091E2,4.8784106E2,3.4249966E1,4.153889E2,7.245216E1,2.8567587E1,5.6823792E0,4.1129224E2,4.096657E0,5.8741077E1,1.3711083E1,2.8826864E0,2.799693E0,3.600385E2,5.125373E1,4.1869114E1,1.6871964E1,3.4279454E0,1.0283138E1,1.7466837E0,1.0530093E0,1.03867516E2,2.56171E2,1.0985508E0,5.015518E1,2.987713E1,1.1991985E1,1.5405745E1,1.4662185E0,1.0457746E0,2.3821707E0,9.798592E1,5.88159E0,2.3823552E2,1.7935469E1,1.4806437E1,3.5348743E1,2.5946865E1,3.9302645E0,1.0555906E1,1.4360783E0,1.4063654E1,1.3420908E0,1.0902367E0,1.2919341E0],"tree_param":{"num_deleted":"0","num_feature":"7","num_nodes":"45","size_leaf_vector":"1"}},{"base_weights":[2.0181717E-2,-1.6057315E-1,1.558138E0,-2.8687158E-1,5.712038E-1,1.0084949E-1,1.0243458E0,2.3699225E-1,-3.592983E-1,1.0178623E0,-5.154605E-1,7.081102E-1,7.461663E-2,5.114578E-1,-8.5317117E-1,-3.7262133E-1,9.4834104E-2,9.0115234E-2,8.8113225E-1,-6.939323E-1,3.783833E-2,3.5257092E-1,8.632624E-2,-7.694577E-2,1.3674824E0,-8.625618E-3,-5.041355E-2,-3.1185862E-1,-6.323537E-1,7.21962E-1,1.0212655E0,-1.3415752E-1,-4.9147677E-2,-5.61117E-2,5.7060905E-2,-3.213906E-2,5.8380426E-3,7.998365E-2,-2.0882016E-2,-1.9170921E-2,6.8201846E-3,-1.1661991E-2,-4.26145E-2,3.995413E-2,-1.6940815E-2,2.0657713E-2,6.972982E-2,-1.5611765E-2,1.4717524E-2,6.4876187E-3,-2.1523012E-2],"categories":[],"categories_nodes":[],"categories_segments":[],"categories_sizes":[],"default_left":[0,0,0,0,0,0,0,0,0,0,0,0,0,0,0,0,0,0,0,0,0,0,0,0,0,0,0,0,0,0,0,0,0,0,0,0,0,0,0,0,0,0,0,0,0,0,0,0,0,0,0],"id":11,"left_children":[1,3,5,7,9,-1,11,13,15,17,19,21,-1,23,25,27,-1,-1,29,31,-1,33,-1,35,37,-1,-1,39,41,43,45,47,-1,49,-1,-1,-1,-1,-1,-1,-1,-1,-1,-1,-1,-1,-1,-1,-1,-1,-1],"loss_changes":[1.4499567E2,4.3309097E1,1.1369064E1,1.5215618E1,3.403723E1,0E0,2.996481E0,1.5109559E1,1.1248825E1,3.6963463E0,5.2426796E0,5.9981403E0,0E0,2.015271E1,9.0688753E-1,5.3189163E0,0E0,0E0,2.4214935E-1,2.9004173E0,0E0,4.828225E0,0E0,2.764192E0,7.4104996E0,0E0,0E0,9.201672E0,5.5325394E0,2.231824E0,4.1778774E0,6.672678E-1,0E0,7.995946E-1,0E0,0E0,0E0,0E0,0E0,0E0,0E0,0E0,0E0,0E0,0E0,0E0,0E0,0E0,0E0,0E0,0E0],"parents":[2147483647,0,0,1,1,2,2,3,3,4,4,6,6,7,7,8,8,9,9,10,10,11,11,13,13,14,14,15,15,18,18,19,19,21,21,23,23,24,24,27,27,28,28,29,29,30,30,31,31,33,33],"right_children":[2,4,6,8,10,-1,12,14,16,18,20,22,-1,24,26,28,-1,-1,30,32,-1,34,-1,36,38,-1,-1,40,42,44,46,48,-1,50,-1,-1,-1,-1,-1,-1,-1,-1,-1,-1,-1,-1,-1,-1,-1,-1,-1],"split_conditions":[1.9251482E0,1.365746E0,6.936821E-1,-3.174349E-1,7.994703E-1,1.0084949E-1,3.0603306E0,3.6799282E-1,1.1545631E1,-3.174349E-1,3.3819377E0,3.3819377E0,7.461663E-2,2.1618139E-2,7.994703E-1,3.6799282E-1,9.4834104E-2,9.0115234E-2,-6.3484706E-2,1.6624254E0,3.783833E-2,3.04644E0,8.632624E-2,-6.5044576E-1,3.0603306E0,-8.625618E-3,-5.041355E-2,6.936821E-1,2.1618139E-2,3.3819377E0,2.0378098E0,8.0385673E-1,-4.9147677E-2,2.0378098E0,5.7060905E-2,-3.213906E-2,5.8380426E-3,7.998365E-2,-2.0882016E-2,-1.9170921E-2,6.8201846E-3,-1.1661991E-2,-4.26145E-2,3.995413E-2,-1.6940815E-2,2.0657713E-2,6.972982E-2,-1.5611765E-2,1.4717524E-2,6.4876187E-3,-2.1523012E-2],"split_indices":[1,4,4,1,2,0,6,2,3,1,4,4,0,4,2,2,0,0,2,2,0,1,0,4,6,0,0,4,4,4,4,1,0,4,0,0,0,0,0,0,0,0,0,0,0,0,0,0,0,0,0],"split_type":[0,0,0,0,0,0,0,0,0,0,0,0,0,0,0,0,0,0,0,0,0,0,0,0,0,0,0,0,0,0,0,0,0,0,0,0,0,0,0,0,0,0,0,0,0,0,0,0,0,0,0],"sum_hessian":[5.1968005E2,4.6582727E2,5.3852745E1,3.977816E2,6.80457E1,2.746502E1,2.6387724E1,4.8039417E1,3.4974216E2,4.826879E1,1.9776907E1,1.7246645E1,9.14108E0,3.8801407E1,9.238012E0,3.4851877E2,1.2234006E0,5.356456E0,4.2912334E1,1.774249E1,2.0344162E0,1.3781554E1,3.4650905E0,2.35346E1,1.5266807E1,2.106381E0,7.1316314E0,2.8422653E2,6.429224E1,2.29718E1,1.9940536E1,6.540011E0,1.1202479E1,9.689326E0,4.0922275E0,5.4108047E0,1.8123795E1,1.3601542E1,1.665264E0,2.4522406E2,3.9002464E1,2.3573814E1,4.0718422E1,2.1644876E1,1.3269223E0,8.3865385E0,1.1553997E1,4.811718E0,1.7282928E0,6.9112716E0,2.7780552E0],"tree_param":{"num_deleted":"0","num_feature":"7","num_nodes":"51","size_leaf_vector":"1"}},{"base_weights":[3.893444E-3,-1.8166162E-1,1.4957399E0,-3.8017282E-1,2.86004E-1,1.9326923E0,1.0318124E0,-4.076273E-1,6.661431E-2,1.1388569E0,1.3317318E-1,2.2472482E0,1.522046E0,-8.8329434E-2,1.7519855E0,3.6779482E-2,-4.7063437E-1,8.931913E-2,7.444762E-1,4.6022512E-2,1.4823875E0,1.2451364E-1,1.2987362E0,5.89962E-1,9.638657E-2,-3.4561774E-1,3.4862213E-2,8.518857E-1,1.9470782E0,-8.247662E-1,1.9596924E-1,-8.4489787E-1,-3.4456772E-1,4.2162505E-1,7.938776E-2,-1.9723144E-1,2.939704E-1,6.534511E-1,9.32881E-2,5.9248286E-1,8.448507E-2,-4.0599637E-2,6.205227E-2,1.1742864E-2,-5.045215E-1,2.8533357E-1,7.416084E-2,1.01503864E-1,2.8067429E-2,-1.2770303E-2,-4.6532985E-2,1.5126406E-2,-3.2463465E-2,-1.5631333E-2,-4.3650907E-2,-1.2216716E-2,-3.1383485E-2,3.260423E-2,-1.0060631E-2,4.36835E-2,-1.6228937E-2,1.8239964E-2,-6.254674E-3,5.282929E-2,-3.0594575E-3,5.0456908E-2,-8.6450605E-3,4.4364603E-3,-1.02848895E-2,-4.8057314E-2,-5.38349E-4,3.7294988E-2,-7.40629E-3],"categories":[],"categories_nodes":[],"categories_segments":[],"categories_sizes":[],"default_left":[0,0,0,0,0,0,0,0,0,0,0,0,0,0,0,0,0,0,0,0,0,0,0,0,0,0,0,0,0,0,0,0,0,0,0,0,0,0,0,0,0,0,0,0,0,0,0,0,0,0,0,0,0,0,0,0,0,0,0,0,0,0,0,0,0,0,0,0,0,0,0,0,0],"id":12,"left_children":[1,3,5,7,9,11,13,15,-1,17,19,21,23,25,27,29,31,-1,33,35,37,-1,39,41,-1,43,-1,45,47,49,51,53,55,57,-1,59,61,63,-1,65,-1,67,-1,-1,69,71,-1,-1,-1,-1,-1,-1,-1,-1,-1,-1,-1,-1,-1,-1,-1,-1,-1,-1,-1,-1,-1,-1,-1,-1,-1,-1,-1],"loss_changes":[1.4451028E2,4.3213654E1,9.712112E0,1.5887741E1,1.7956507E1,2.72995E-1,2.4480392E1,9.033443E0,0E0,4.0277863E0,1.3918255E1,1.4190674E-2,4.724167E0,2.8184948E0,1.5727959E0,5.7725015E0,1.3018269E1,0E0,3.347188E0,6.859191E0,1.0641775E0,0E0,3.6959267E-1,2.5718796E0,0E0,1.0662391E0,0E0,1.3852012E0,5.1044464E-1,1.5855551E-1,3.379274E0,7.806015E-1,5.882206E0,1.8580189E0,0E0,8.127763E0,1.7150626E0,1.1626369E0,0E0,1.2296753E0,0E0,1.055463E-1,0E0,0E0,1.8799727E0,8.896427E-1,0E0,0E0,0E0,0E0,0E0,0E0,0E0,0E0,0E0,0E0,0E0,0E0,0E0,0E0,0E0,0E0,0E0,0E0,0E0,0E0,0E0,0E0,0E0,0E0,0E0,0E0,0E0],"parents":[2147483647,0,0,1,1,2,2,3,3,4,4,5,5,6,6,7,7,9,9,10,10,11,11,12,12,13,13,14,14,15,15,16,16,18,18,19,19,20,20,22,22,23,23,25,25,27,27,28,28,29,29,30,30,31,31,32,32,33,33,35,35,36,36,37,37,39,39,41,41,44,44,45,45],"right_children":[2,4,6,8,10,12,14,16,-1,18,20,22,24,26,28,30,32,-1,34,36,38,-1,40,42,-1,44,-1,46,48,50,52,54,56,58,-1,60,62,64,-1,66,-1,68,-1,-1,70,72,-1,-1,-1,-1,-1,-1,-1,-1,-1,-1,-1,-1,-1,-1,-1,-1,-1,-1,-1,-1,-1,-1,-1,-1,-1,-1,-1],"split_conditions":[1.9251482E0,6.936821E-1,6.936821E-1,1.8838167E0,-3.174349E-1,4.7711366E-1,8.678645E-1,-3.174349E-1,6.661431E-2,-1.7837403E-2,1.988017E0,2.1618139E-2,9.7206473E-1,3.04644E0,1.4149157E0,-8.514392E-1,-5.909386E-1,8.931913E-2,2.709874E0,1.365746E0,2.7695186E0,1.2451364E-1,3.7291345E-1,2.1618139E-2,9.638657E-2,1.6451299E-1,3.4862213E-2,3.04644E0,1.0662685E1,-9.295894E-1,1.3846293E-1,-8.2538915E-1,6.0312767E-2,8.4181446E-1,7.938776E-2,-2.5228792E-1,1.2846655E0,2.3006177E0,9.32881E-2,-6.993751E-2,8.448507E-2,6.5946406E-1,6.205227E-2,1.1742864E-2,4.7711366E-1,1.0241648E0,7.416084E-2,1.01503864E-1,2.8067429E-2,-1.2770303E-2,-4.6532985E-2,1.5126406E-2,-3.2463465E-2,-1.5631333E-2,-4.3650907E-2,-1.2216716E-2,-3.1383485E-2,3.260423E-2,-1.0060631E-2,4.36835E-2,-1.6228937E-2,1.8239964E-2,-6.254674E-3,5.282929E-2,-3.0594575E-3,5.0456908E-2,-8.6450605E-3,4.4364603E-3,-1.02848895E-2,-4.8057314E-2,-5.38349E-4,3.7294988E-2,-7.40629E-3],"split_indices":[1,4,4,0,1,0,0,1,0,0,0,4,0,1,0,0,0,0,4,4,0,0,0,4,0,0,0,1,0,0,0,0,0,0,0,0,0,0,0,0,0,0,0,0,0,0,0,0,0,0,0,0,0,0,0,0,0,0,0,0,0,0,0,0,0,0,0,0,0,0,0,0,0],"split_type":[0,0,0,0,0,0,0,0,0,0,0,0,0,0,0,0,0,0,0,0,0,0,0,0,0,0,0,0,0,0,0,0,0,0,0,0,0,0,0,0,0,0,0,0,0,0,0,0,0,0,0,0,0,0,0,0,0,0,0,0,0,0,0,0,0,0,0,0,0,0,0,0,0],"sum_hessian":[5.20056E2,4.6330823E2,5.6747795E1,3.253803E2,1.3792792E2,2.7593138E1,2.915466E1,3.20996E2,4.3843064E0,1.998005E1,1.1794787E2,1.3092099E1,1.4501039E1,1.1752468E1,1.7402191E1,3.991071E1,2.810853E2,6.2268014E0,1.3753248E1,1.1176282E2,6.185057E0,9.12792E0,3.9641793E0,5.1417727E0,9.359265E0,9.274847E0,2.477621E0,4.0559254E0,1.3346265E1,5.572256E0,3.433845E1,6.938749E1,2.116978E2,1.103027E1,2.722979E0,5.651866E1,5.5244156E1,2.811175E0,3.373882E0,2.308842E0,1.6553375E0,3.0883799E0,2.0533931E0,1.8905799E0,7.3842673E0,2.9028676E0,1.1530579E0,1.2153346E1,1.1929189E0,1.4089E0,4.163356E0,3.1064272E1,3.2741807E0,4.0898986E0,6.529759E1,1.577196E2,5.3978203E1,8.016926E0,3.0133436E0,5.3838367E0,5.1134823E1,4.7367702E1,7.87645E0,1.4913853E0,1.3197898E0,1.288787E0,1.0200549E0,1.9911718E0,1.0972079E0,3.3445845E0,4.039683E0,1.0579506E0,1.8449169E0],"tree_param":{"num_deleted":"0","num_feature":"7","num_nodes":"73","size_leaf_vector":"1"}},{"base_weights":[4.4624615E-2,-1.1642724E-1,1.350032E0,-1.7046754E-1,1.5823594E0,1.0554285E0,1.7968085E0,-6.3891694E-2,-8.31426E-1,9.072785E-2,2.6304537E-1,7.247425E-1,8.6624555E-2,9.410171E-2,7.986271E-3,-1.8695156E-1,9.0756536E-1,3.2162692E-2,-8.7290347E-1,-3.5178874E-2,6.1157156E-2,1.3946601E0,3.1098133E-1,-5.690272E-1,-5.3014286E-2,1.6583706E0,1.9016084E-1,-4.8494156E-2,-7.390782E-1,7.488506E-1,1.073514E-1,-2.6734488E-2,8.6877215E-1,1.4672071E-2,-4.116308E-2,2.2171142E-2,-5.427494E-3,8.918144E-2,2.4071192E-2,-1.3720765E-2,3.3461045E-2,-1.7992033E-2,-4.607266E-2,5.14472E-2,-1.3641603E-2,-3.7453353E-2,1.946648E-2,6.607439E-2,2.2680437E-2],"categories":[],"categories_nodes":[],"categories_segments":[],"categories_sizes":[],"default_left":[0,0,0,0,0,0,0,0,0,0,0,0,0,0,0,0,0,0,0,0,0,0,0,0,0,0,0,0,0,0,0,0,0,0,0,0,0,0,0,0,0,0,0,0,0,0,0,0,0],"id":13,"left_children":[1,3,5,7,9,11,13,15,17,-1,19,21,-1,-1,-1,23,25,-1,27,-1,-1,29,31,33,35,37,39,-1,41,43,-1,45,47,-1,-1,-1,-1,-1,-1,-1,-1,-1,-1,-1,-1,-1,-1,-1,-1],"loss_changes":[1.09236946E2,4.275418E1,5.613968E0,3.1604572E1,3.9232483E0,6.9858894E0,2.6642914E0,4.6565258E1,4.3733635E0,0E0,3.94113E0,6.8978453E0,0E0,0E0,0E0,1.7639679E1,2.3279572E1,0E0,7.537079E-2,0E0,0E0,3.159687E0,3.345788E0,1.9870762E1,7.1271925E0,2.2777061E0,5.420583E0,0E0,1.7329311E0,2.231084E0,0E0,3.8849945E0,6.563673E-1,0E0,0E0,0E0,0E0,0E0,0E0,0E0,0E0,0E0,0E0,0E0,0E0,0E0,0E0,0E0,0E0],"parents":[2147483647,0,0,1,1,2,2,3,3,4,4,5,5,6,6,7,7,8,8,10,10,11,11,15,15,16,16,18,18,21,21,22,22,23,23,24,24,25,25,26,26,28,28,29,29,31,31,32,32],"right_children":[2,4,6,8,10,12,14,16,18,-1,20,22,-1,-1,-1,24,26,-1,28,-1,-1,30,32,34,36,38,40,-1,42,44,-1,46,48,-1,-1,-1,-1,-1,-1,-1,-1,-1,-1,-1,-1,-1,-1,-1,-1],"split_conditions":[1.9251482E0,1.9359168E0,1.4149157E0,7.994703E-1,2.956858E0,3.04644E0,3.819813E0,3.989635E-1,-2.5228792E-1,9.072785E-2,2.6392684E0,1.6451299E-1,8.6624555E-2,9.410171E-2,7.986271E-3,-5.909386E-1,8.0385673E-1,3.2162692E-2,6.5946406E-1,-3.5178874E-2,6.1157156E-2,-6.3484706E-2,3.0603306E0,-3.174349E-1,-3.174349E-1,3.0603306E0,8.157644E-1,-4.8494156E-2,2.0939028E0,-4.388746E-2,1.073514E-1,5.552638E-1,4.7711366E-1,1.4672071E-2,-4.116308E-2,2.2171142E-2,-5.427494E-3,8.918144E-2,2.4071192E-2,-1.3720765E-2,3.3461045E-2,-1.7992033E-2,-4.607266E-2,5.14472E-2,-1.3641603E-2,-3.7453353E-2,1.946648E-2,6.607439E-2,2.2680437E-2],"split_indices":[1,0,0,2,2,1,2,0,0,0,0,0,0,0,0,0,1,0,0,0,0,2,6,1,1,6,0,0,2,0,0,0,0,0,0,0,0,0,0,0,0,0,0,0,0,0,0,0,0],"split_type":[0,0,0,0,0,0,0,0,0,0,0,0,0,0,0,0,0,0,0,0,0,0,0,0,0,0,0,0,0,0,0,0,0,0,0,0,0,0,0,0,0,0,0,0,0,0,0,0,0],"sum_hessian":[5.178388E2,4.6177863E2,5.6060143E1,4.4841376E2,1.3364889E1,3.5809654E1,2.0250488E1,3.8709372E2,6.1320026E1,1.1045515E1,2.3193746E0,2.5449978E1,1.0359678E1,1.9106203E1,1.1442858E0,3.4428836E2,4.2805363E1,1.2806206E0,6.0039406E1,1.2888982E0,1.0304765E0,8.811941E0,1.6638037E1,8.852096E1,2.557674E2,2.0274893E1,2.253047E1,3.1189684E1,2.884972E1,5.8154564E0,2.9964845E0,1.095648E1,5.6815567E0,2.0118029E1,6.840293E1,2.503078E1,2.3073662E2,1.7858778E1,2.416114E0,1.1655015E1,1.0875456E1,1.0333959E1,1.8515762E1,4.5586104E0,1.2568462E0,3.7118828E0,7.2445974E0,1.6735626E0,4.007994E0],"tree_param":{"num_deleted":"0","num_feature":"7","num_nodes":"49","size_leaf_vector":"1"}},{"base_weights":[1.0171759E-2,-8.578132E-2,1.2150611E0,-2.529482E-1,2.996387E-1,1.4431511E0,-1.5719676E-1,-2.7272654E-1,8.3695315E-2,5.92185E-1,-7.634942E-1,1.5563418E0,8.633694E-1,-4.470589E-2,8.379055E-1,-5.803696E-1,-1.6422911E-1,4.4889823E-1,9.132816E-1,-8.108246E-1,1.5267675E-2,8.037689E-2,1.778061E-2,-4.9051872E-1,1.4736743E0,7.174743E-2,-9.6636815E-3,-6.4553666E-1,5.6994456E-1,-1.102503E-1,-8.383058E-1,1.3176779E0,3.3611915E-1,9.603759E-1,-1.3073444E-2,-6.3285905E-1,-4.6615668E-2,-4.363302E-2,7.2837174E-3,2.389809E-2,8.360307E-2,-2.3445698E-2,-3.6038082E-2,9.074654E-3,3.7908472E-2,1.6412385E-3,-1.4603424E-2,-4.395515E-2,-4.8368843E-3,7.2787635E-2,1.1424398E-2,2.1553356E-2,-1.6589822E-2,4.1817393E-2,6.0969103E-2,-4.598646E-2,-6.9761123E-3],"categories":[],"categories_nodes":[],"categories_segments":[],"categories_sizes":[],"default_left":[0,0,0,0,0,0,0,0,0,0,0,0,0,0,0,0,0,0,0,0,0,0,0,0,0,0,0,0,0,0,0,0,0,0,0,0,0,0,0,0,0,0,0,0,0,0,0,0,0,0,0,0,0,0,0,0,0],"id":14,"left_children":[1,3,5,7,9,11,13,15,-1,17,19,21,23,-1,25,27,29,31,33,35,-1,-1,-1,37,39,-1,-1,41,43,45,47,49,51,53,-1,55,-1,-1,-1,-1,-1,-1,-1,-1,-1,-1,-1,-1,-1,-1,-1,-1,-1,-1,-1,-1,-1],"loss_changes":[6.0087955E1,3.109835E1,1.2226032E1,1.3275885E1,4.5897297E1,8.200302E-1,5.417196E0,1.1047094E1,0E0,4.887974E0,1.8648281E0,1.0474854E0,7.028514E0,0E0,2.2625968E0,6.8626747E0,8.937824E0,7.5510178E0,2.163292E0,7.77607E-2,0E0,0E0,0E0,8.85996E-1,2.8922176E-1,0E0,0E0,7.57679E-1,2.4086392E-1,6.0169525E0,4.6705914E-1,1.0256596E0,4.807699E0,5.4563522E-2,0E0,2.085662E0,0E0,0E0,0E0,0E0,0E0,0E0,0E0,0E0,0E0,0E0,0E0,0E0,0E0,0E0,0E0,0E0,0E0,0E0,0E0,0E0,0E0],"parents":[2147483647,0,0,1,1,2,2,3,3,4,4,5,5,6,6,7,7,9,9,10,10,11,11,12,12,14,14,15,15,16,16,17,17,18,18,19,19,23,23,24,24,27,27,28,28,29,29,30,30,31,31,32,32,33,33,35,35],"right_children":[2,4,6,8,10,12,14,16,-1,18,20,22,24,-1,26,28,30,32,34,36,-1,-1,-1,38,40,-1,-1,42,44,46,48,50,52,54,-1,56,-1,-1,-1,-1,-1,-1,-1,-1,-1,-1,-1,-1,-1,-1,-1,-1,-1,-1,-1,-1,-1],"split_conditions":[1.6233162E0,6.936821E-1,2.956858E0,1.1545631E1,7.994703E-1,2.709874E0,2.7695186E0,-5.909386E-1,8.3695315E-2,5.552638E-1,3.3819377E0,1.6624254E0,3.3819377E0,-4.470589E-2,9.464383E0,2.1618139E-2,1.2309479E0,-2.7833796E-1,1.5191159E0,1.6624254E0,1.5267675E-2,8.037689E-2,1.778061E-2,-6.3484706E-2,1.9359168E0,7.174743E-2,-9.6636815E-3,-7.47239E-1,-6.4303875E-1,2.1618139E-2,1.3628156E0,-6.3484706E-2,3.6799282E-1,1.1544151E0,-1.3073444E-2,6.5946406E-1,-4.6615668E-2,-4.363302E-2,7.2837174E-3,2.389809E-2,8.360307E-2,-2.3445698E-2,-3.6038082E-2,9.074654E-3,3.7908472E-2,1.6412385E-3,-1.4603424E-2,-4.395515E-2,-4.8368843E-3,7.2787635E-2,1.1424398E-2,2.1553356E-2,-1.6589822E-2,4.1817393E-2,6.0969103E-2,-4.598646E-2,-6.9761123E-3],"split_indices":[0,4,2,3,2,4,0,0,0,0,4,2,4,0,0,4,2,0,0,2,0,0,0,2,0,0,0,0,0,4,0,2,2,0,0,0,0,0,0,0,0,0,0,0,0,0,0,0,0,0,0,0,0,0,0,0,0],"split_type":[0,0,0,0,0,0,0,0,0,0,0,0,0,0,0,0,0,0,0,0,0,0,0,0,0,0,0,0,0,0,0,0,0,0,0,0,0,0,0,0,0,0,0,0,0,0,0,0,0,0,0,0,0,0,0,0,0],"sum_hessian":[5.1783276E2,4.8049652E2,3.733622E1,3.3537793E2,1.4511859E2,3.1970566E1,5.365655E0,3.3282013E2,2.5577984E0,1.14150375E2,3.0968216E1,2.5339235E1,6.631329E0,3.1410432E0,2.2246118E0,8.563996E1,2.4718018E2,8.058706E1,3.3563316E1,2.9886206E1,1.0820096E0,2.397807E1,1.3611666E0,2.1214406E0,4.5098886E0,1.1609004E0,1.0637114E0,8.146374E1,4.1762285E0,2.2993126E2,1.7248913E1,8.031753E0,7.2555305E1,3.2445118E1,1.1181985E0,1.4643925E1,1.5242281E1,1.0931361E0,1.0283046E0,1.3156792E0,3.1942093E0,2.6493158E1,5.4970573E1,2.0042229E0,2.1720057E0,1.2913374E2,1.0079753E2,1.6173656E1,1.0752555E0,6.829449E0,1.202303E0,6.383536E1,8.719948E0,2.479893E1,7.646187E0,8.713066E0,5.930858E0],"tree_param":{"num_deleted":"0","num_feature":"7","num_nodes":"57","size_leaf_vector":"1"}},{"base_weights":[1.7869408E-3,5.942235E-1,-6.089141E-1,4.925607E-1,1.5370582E0,-8.294124E-1,-9.177567E-2,5.995384E-1,-8.1633645E-1,8.6858E-2,-1.4985706E-1,-8.783887E-1,4.8935246E-2,1.11811034E-1,-6.8227965E-1,4.4270828E-1,1.3123175E0,-4.0923503E-1,-4.3625787E-2,-3.3676054E-2,1.9760111E-2,-9.8143923E-1,-6.4747703E-1,-4.7131088E-2,9.766398E-1,-7.436572E-1,7.885653E-3,-7.488962E-1,4.9419817E-1,1.4144592E0,1.9615632E-1,-3.6587268E-2,6.707795E-3,-2.3801914E-1,-1.0033655E0,-4.2161158E-1,-4.560851E-2,3.4390513E-2,-4.9534756E-1,4.5799172E-1,1.2170643E0,-6.1255367E-3,-7.769526E-1,-8.403652E-3,-4.1347083E-2,3.6431476E-2,1.2923866E-2,7.519626E-2,1.1534346E-2,-2.2275731E-2,4.5185603E-2,-2.5255222E-2,1.5806157E-2,-5.0791483E-2,-2.307799E-2,6.1640455E-3,-2.5884211E-2,-2.7647044E-3,1.737093E-2,-4.45732E-2,5.6634867E-3,-1.034856E-2,4.7573667E-2,-2.7956467E-3,8.084218E-2,-4.82139E-2,-2.8049532E-2],"categories":[],"categories_nodes":[],"categories_segments":[],"categories_sizes":[],"default_left":[0,0,0,0,0,0,0,0,0,0,0,0,0,0,0,0,0,0,0,0,0,0,0,0,0,0,0,0,0,0,0,0,0,0,0,0,0,0,0,0,0,0,0,0,0,0,0,0,0,0,0,0,0,0,0,0,0,0,0,0,0,0,0,0,0,0,0],"id":15,"left_children":[1,3,5,7,9,11,13,15,17,-1,19,21,-1,23,25,27,29,31,-1,-1,-1,33,35,37,39,41,-1,43,45,47,49,-1,-1,51,53,55,-1,57,59,61,63,-1,65,-1,-1,-1,-1,-1,-1,-1,-1,-1,-1,-1,-1,-1,-1,-1,-1,-1,-1,-1,-1,-1,-1,-1,-1],"loss_changes":[1.860482E2,2.4261528E1,2.8797165E1,3.3686245E1,8.676743E0,1.6568962E1,9.310993E0,2.3983307E1,6.2300682E-2,0E0,1.2836034E0,3.4869995E0,0E0,8.015996E0,1.1398926E0,1.1513771E1,4.182602E0,8.178956E-1,0E0,0E0,0E0,1.6821365E0,2.9871006E0,1.8415717E0,5.708065E-1,2.907076E-1,0E0,2.2005749E-1,9.465862E0,3.4318542E0,2.4188602E0,0E0,0E0,8.533962E-1,3.0208588E-1,1.7541656E0,0E0,1.2315575E0,1.9691799E0,1.6634431E0,2.9294262E0,0E0,1.6792488E-1,0E0,0E0,0E0,0E0,0E0,0E0,0E0,0E0,0E0,0E0,0E0,0E0,0E0,0E0,0E0,0E0,0E0,0E0,0E0,0E0,0E0,0E0,0E0,0E0],"parents":[2147483647,0,0,1,1,2,2,3,3,4,4,5,5,6,6,7,7,8,8,10,10,11,11,13,13,14,14,15,15,16,16,17,17,21,21,22,22,23,23,24,24,25,25,27,27,28,28,29,29,30,30,33,33,34,34,35,35,37,37,38,38,39,39,40,40,42,42],"right_children":[2,4,6,8,10,12,14,16,18,-1,20,22,-1,24,26,28,30,32,-1,-1,-1,34,36,38,40,42,-1,44,46,48,50,-1,-1,52,54,56,-1,58,60,62,64,-1,66,-1,-1,-1,-1,-1,-1,-1,-1,-1,-1,-1,-1,-1,-1,-1,-1,-1,-1,-1,-1,-1,-1,-1,-1],"split_conditions":[8.064195E-1,1.7014663E0,6.936821E-1,1.2309479E0,2.956858E0,1.7275164E0,7.994703E-1,4.2501354E-1,2.1618139E-2,8.6858E-2,2.3006177E0,2.1618139E-2,4.8935246E-2,1.2065152E0,1.9359168E0,-8.514392E-1,7.994703E-1,6.0736394E-1,-4.3625787E-2,-3.3676054E-2,1.9760111E-2,-6.5044576E-1,-6.3484706E-2,3.6799282E-1,-6.3484706E-2,1.9056305E-1,7.885653E-3,-9.295894E-1,2.1618139E-2,3.3819377E0,7.115642E-1,-3.6587268E-2,6.707795E-3,-5.648886E-1,5.813139E-1,-4.867384E-1,-4.560851E-2,2.0378098E0,3.7291345E-1,1.8838167E0,2.0378098E0,-6.1255367E-3,7.8971434E-1,-8.403652E-3,-4.1347083E-2,3.6431476E-2,1.2923866E-2,7.519626E-2,1.1534346E-2,-2.2275731E-2,4.5185603E-2,-2.5255222E-2,1.5806157E-2,-5.0791483E-2,-2.307799E-2,6.1640455E-3,-2.5884211E-2,-2.7647044E-3,1.737093E-2,-4.45732E-2,5.6634867E-3,-1.034856E-2,4.7573667E-2,-2.7956467E-3,8.084218E-2,-4.82139E-2,-2.8049532E-2],"split_indices":[5,0,4,2,2,0,2,0,4,0,0,4,0,0,0,0,2,0,0,0,0,4,2,2,2,0,0,0,4,4,0,0,0,0,0,0,0,4,0,0,4,0,0,0,0,0,0,0,0,0,0,0,0,0,0,0,0,0,0,0,0,0,0,0,0,0,0],"split_type":[0,0,0,0,0,0,0,0,0,0,0,0,0,0,0,0,0,0,0,0,0,0,0,0,0,0,0,0,0,0,0,0,0,0,0,0,0,0,0,0,0,0,0,0,0,0,0,0,0,0,0,0,0,0,0,0,0,0,0,0,0,0,0,0,0,0,0],"sum_hessian":[5.12227E2,2.6001517E2,2.5221184E2,2.3608168E2,2.3933495E1,1.7639598E2,7.581586E1,2.1874533E2,1.7336351E1,2.1368929E1,2.5645652E0,1.722446E2,4.151379E0,5.698122E1,1.8834635E1,1.8062434E2,3.8120987E1,3.1068811E0,1.422947E1,1.187752E0,1.3768132E0,1.1684783E2,5.5396767E1,4.8933506E1,8.047717E0,1.7658993E1,1.1756413E0,6.920568E0,1.7370378E2,3.4680096E1,3.4408891E0,1.7321796E0,1.3747015E0,3.6872013E0,1.1316064E2,3.1289734E1,2.4107033E1,4.21843E1,6.7492065E0,3.469081E0,4.578636E0,1.1364952E0,1.65225E1,1.1933149E0,5.7272534E0,8.60417E1,8.766207E1,3.1991802E1,2.6882942E0,1.9986722E0,1.442217E0,2.5477371E0,1.139464E0,1.0976072E2,3.3999107E0,4.647491E0,2.6642242E1,3.34298E1,8.754499E0,3.806817E0,2.9423895E0,1.7251047E0,1.7439761E0,1.2998371E0,3.2787993E0,6.992322E0,9.530176E0],"tree_param":{"num_deleted":"0","num_feature":"7","num_nodes":"67","size_leaf_vector":"1"}},{"base_weights":[1.0050297E-3,5.5746657E-1,-5.9517264E-1,4.283865E-1,1.2813178E0,-7.11929E-1,8.1474066E-1,3.8153052E-1,9.0021886E-2,1.4345022E0,-2.4066079E-1,-9.503444E-1,-5.573474E-1,8.292911E-2,1.6540294E0,4.7630164E-1,-3.645149E-1,9.6620075E-2,1.2759422E0,-3.7004095E-2,1.5060015E-2,-5.089384E-2,-8.078954E-1,-3.7624076E-1,-8.789865E-1,-2.2221014E-1,7.055581E-2,8.981948E-2,2.0267026E-2,3.670157E-1,1.1224084E0,-4.998592E-1,7.4014205E-1,4.4456574E-1,7.182962E-2,-2.5402328E-2,-4.2659298E-2,-4.8012146E-1,-8.820865E-2,-4.437839E-2,-1.30202165E-2,5.296646E-1,-4.2468827E-2,-1.8607542E-2,2.1994134E-2,6.509121E-2,4.384903E-3,3.9295387E-2,-3.0028934E-2,4.554768E-2,9.604199E-3,-1.4456801E-2,7.3648684E-2,-2.6989346E-2,-1.4193532E-2,2.8545368E-2,-1.676927E-2,-3.424522E-2,5.525219E-2],"categories":[],"categories_nodes":[],"categories_segments":[],"categories_sizes":[],"default_left":[0,0,0,0,0,0,0,0,0,0,0,0,0,0,0,0,0,0,0,0,0,0,0,0,0,0,0,0,0,0,0,0,0,0,0,0,0,0,0,0,0,0,0,0,0,0,0,0,0,0,0,0,0,0,0,0,0,0,0],"id":16,"left_children":[1,3,5,7,9,11,13,15,-1,17,19,21,23,25,27,29,31,-1,33,-1,-1,-1,35,37,39,41,-1,-1,-1,43,45,47,49,51,-1,-1,-1,53,55,-1,-1,57,-1,-1,-1,-1,-1,-1,-1,-1,-1,-1,-1,-1,-1,-1,-1,-1,-1],"loss_changes":[1.6869394E2,2.4025215E1,4.099153E1,1.3759258E1,9.507912E0,7.8454666E0,1.1680549E1,1.5626308E1,0E0,3.6465454E-1,1.4272016E0,2.3910522E-2,7.840763E0,4.905936E0,8.556347E-1,1.3311577E1,4.1376886E0,0E0,3.3861809E0,0E0,0E0,0E0,1.6580582E-2,2.6952658E0,3.3145905E-2,5.2023263E0,0E0,0E0,0E0,9.197405E0,5.0155983E0,3.4566126E0,1.2025523E-1,5.2008166E0,0E0,0E0,0E0,6.3151264E-1,4.342102E0,0E0,0E0,4.390375E0,0E0,0E0,0E0,0E0,0E0,0E0,0E0,0E0,0E0,0E0,0E0,0E0,0E0,0E0,0E0,0E0,0E0],"parents":[2147483647,0,0,1,1,2,2,3,3,4,4,5,5,6,6,7,7,9,9,10,10,11,11,12,12,13,13,14,14,15,15,16,16,18,18,22,22,23,23,24,24,25,25,29,29,30,30,31,31,32,32,33,33,37,37,38,38,41,41],"right_children":[2,4,6,8,10,12,14,16,-1,18,20,22,24,26,28,30,32,-1,34,-1,-1,-1,36,38,40,42,-1,-1,-1,44,46,48,50,52,-1,-1,-1,54,56,-1,-1,58,-1,-1,-1,-1,-1,-1,-1,-1,-1,-1,-1,-1,-1,-1,-1,-1,-1],"split_conditions":[8.064195E-1,1.9251482E0,1.9251482E0,2.6913683E0,1.2309479E0,-4.0858826E-1,1.1804652E0,7.994703E-1,9.0021886E-2,-4.388746E-2,1.545166E0,-5.648886E-1,3.6799282E-1,4.1677313E0,5.289023E0,4.510636E-1,1.9359168E0,9.6620075E-2,3.7291345E-1,-3.7004095E-2,1.5060015E-2,-5.089384E-2,-5.388385E-1,2.166131E-1,2.1964173E0,2.687132E-1,7.055581E-2,8.981948E-2,2.0267026E-2,-7.73289E-1,1.4409658E0,-1.2203763E-1,2.014067E0,3.6799282E-1,7.182962E-2,-2.5402328E-2,-4.2659298E-2,-6.3484706E-2,8.0385673E-1,-4.437839E-2,-1.30202165E-2,-1.7413774E-1,-4.2468827E-2,-1.8607542E-2,2.1994134E-2,6.509121E-2,4.384903E-3,3.9295387E-2,-3.0028934E-2,4.554768E-2,9.604199E-3,-1.4456801E-2,7.3648684E-2,-2.6989346E-2,-1.4193532E-2,2.8545368E-2,-1.676927E-2,-3.424522E-2,5.525219E-2],"split_indices":[5,1,1,0,2,0,0,2,0,0,0,0,2,1,1,0,0,0,0,0,0,0,0,0,0,0,0,0,0,0,0,0,0,2,0,0,0,2,1,0,0,0,0,0,0,0,0,0,0,0,0,0,0,0,0,0,0,0,0],"split_type":[0,0,0,0,0,0,0,0,0,0,0,0,0,0,0,0,0,0,0,0,0,0,0,0,0,0,0,0,0,0,0,0,0,0,0,0,0,0,0,0,0,0,0,0,0,0,0,0,0,0,0,0,0,0,0,0,0,0,0],"sum_hessian":[5.0649716E2,2.6200827E2,2.4448889E2,2.2370764E2,3.8300636E1,2.2624811E2,1.8240788E1,2.175561E2,6.151534E0,3.4850475E1,3.450162E0,8.6967674E1,1.3928044E2,1.0331298E1,7.9094896E0,1.9335548E2,2.4200628E1,5.715589E0,2.9134886E1,1.6050286E0,1.8451333E0,5.48288E1,3.213887E1,9.0494865E1,4.8785576E1,9.078329E0,1.252969E0,6.7062984E0,1.2031909E0,1.6672308E2,2.663239E1,2.2046904E1,2.1537237E0,5.3282228E0,2.3806662E1,5.8206167E0,2.6318253E1,6.601809E1,2.4476772E1,4.7689167E1,1.0964113E0,4.199385E0,4.878944E0,1.4592159E1,1.5213094E2,2.2476824E1,4.1555657E0,1.1073773E0,2.0939528E1,1.1371605E0,1.0165632E0,3.5292118E0,1.7990111E0,4.9283966E1,1.6734125E1,6.3184414E0,1.815833E1,1.2887042E0,2.9106808E0],"tree_param":{"num_deleted":"0","num_feature":"7","num_nodes":"59","size_leaf_vector":"1"}},{"base_weights":[1.9670388E-2,5.5026215E-1,-5.6585294E-1,4.2594054E-1,1.2536695E0,-7.013286E-1,9.1166914E-1,2.1570225E-1,8.178591E-1,1.9512198E0,3.6569056E-1,-8.21926E-1,1.5055852E-3,6.725318E-1,7.512995E-2,9.122529E-2,1.197379E0,1.0110441E0,-3.213005E-1,1.001531E-1,2.8905934E-2,6.233039E-1,-3.553002E-2,-9.8193085E-1,-6.05495E-1,2.7888417E-1,-7.806109E-1,1.8905434E-1,1.1095138E0,2.896215E-1,-2.0847355E-1,8.723169E-2,5.894868E-1,1.3048116E0,4.226631E-1,-5.477584E-1,4.7274295E-2,2.5481674E-1,6.640783E-2,-1.0345124E0,-3.6218163E-2,-4.2897564E-1,-4.8972245E-2,7.309871E-2,7.384426E-1,-4.2308908E-2,-1.2910947E-2,3.8402426E-1,-2.057599E-2,4.6397954E-1,6.994654E-2,-9.792851E-3,2.3906974E-2,1.3684683E-2,-2.0233085E-2,1.1661558E-2,5.0369393E-2,8.700715E-2,4.3624036E-2,2.7148381E-3,4.9744185E-2,8.856172E-3,-3.945849E-2,-8.187148E-3,4.6067473E-2,-1.5321771E-2,-5.282243E-2,-1.8409658E-2,-4.7608644E-2,-1.4395838E-2,1.8265901E-2,1.8415488E-3,5.7782847E-2,-2.6928866E-3,4.8276078E-2,-1.7522633E-2,4.598443E-2],"categories":[],"categories_nodes":[],"categories_segments":[],"categories_sizes":[],"default_left":[0,0,0,0,0,0,0,0,0,0,0,0,0,0,0,0,0,0,0,0,0,0,0,0,0,0,0,0,0,0,0,0,0,0,0,0,0,0,0,0,0,0,0,0,0,0,0,0,0,0,0,0,0,0,0,0,0,0,0,0,0,0,0,0,0,0,0,0,0,0,0,0,0,0,0,0,0],"id":17,"left_children":[1,3,5,7,9,11,13,15,17,19,21,23,25,27,-1,29,31,33,35,-1,-1,37,-1,39,41,43,45,47,49,51,53,-1,55,57,59,61,-1,63,-1,65,-1,67,-1,69,71,-1,-1,73,-1,75,-1,-1,-1,-1,-1,-1,-1,-1,-1,-1,-1,-1,-1,-1,-1,-1,-1,-1,-1,-1,-1,-1,-1,-1,-1,-1,-1],"loss_changes":[1.570452E2,2.2654793E1,4.8745094E1,1.851577E1,2.363726E1,1.8708328E1,1.903307E0,1.8099215E1,1.7676632E1,3.9286804E-1,5.5796423E0,5.929199E0,7.446702E0,3.2740102E0,0E0,7.9877152E0,4.5224667E0,1.1142609E1,4.0152874E0,0E0,0E0,3.6824465E0,0E0,6.957474E-1,5.037609E0,2.3419776E0,8.932495E-2,1.2158257E0,9.307232E-1,7.473784E0,5.189188E0,0E0,1.1667886E0,6.884529E0,5.00685E0,2.0604663E0,0E0,3.3323064E0,0E0,1.0542221E0,0E0,1.4922123E0,0E0,2.068357E0,2.2190366E0,0E0,0E0,1.9202085E0,0E0,1.84912E0,0E0,0E0,0E0,0E0,0E0,0E0,0E0,0E0,0E0,0E0,0E0,0E0,0E0,0E0,0E0,0E0,0E0,0E0,0E0,0E0,0E0,0E0,0E0,0E0,0E0,0E0,0E0],"parents":[2147483647,0,0,1,1,2,2,3,3,4,4,5,5,6,6,7,7,8,8,9,9,10,10,11,11,12,12,13,13,15,15,16,16,17,17,18,18,21,21,23,23,24,24,25,25,26,26,27,27,28,28,29,29,30,30,32,32,33,33,34,34,35,35,37,37,39,39,41,41,43,43,44,44,47,47,49,49],"right_children":[2,4,6,8,10,12,14,16,18,20,22,24,26,28,-1,30,32,34,36,-1,-1,38,-1,40,42,44,46,48,50,52,54,-1,56,58,60,62,-1,64,-1,66,-1,68,-1,70,72,-1,-1,74,-1,76,-1,-1,-1,-1,-1,-1,-1,-1,-1,-1,-1,-1,-1,-1,-1,-1,-1,-1,-1,-1,-1,-1,-1,-1,-1,-1,-1],"split_conditions":[8.064195E-1,1.9251482E0,1.9251482E0,6.936821E-1,6.936821E-1,1.365746E0,3.6799282E-1,8.0385673E-1,1.2309479E0,5.289023E0,7.994703E-1,2.1618139E-2,7.994703E-1,3.04644E0,7.512995E-2,2.1618139E-2,-6.3484706E-2,8.0385673E-1,2.709874E0,1.001531E-1,2.8905934E-2,3.04644E0,-3.553002E-2,8.0385673E-1,3.6799282E-1,2.709874E0,3.0603306E0,2.0378098E0,3.0603306E0,-6.5044576E-1,-3.174349E-1,8.723169E-2,2.1618139E-2,-6.3484706E-2,-6.3484706E-2,1.6624254E0,4.7274295E-2,3.0603306E0,6.640783E-2,-6.5044576E-1,-3.6218163E-2,3.0603306E0,-4.8972245E-2,8.0385673E-1,-6.3484706E-2,-4.2308908E-2,-1.2910947E-2,6.936821E-1,-2.057599E-2,2.0378098E0,6.994654E-2,-9.792851E-3,2.3906974E-2,1.3684683E-2,-2.0233085E-2,1.1661558E-2,5.0369393E-2,8.700715E-2,4.3624036E-2,2.7148381E-3,4.9744185E-2,8.856172E-3,-3.945849E-2,-8.187148E-3,4.6067473E-2,-1.5321771E-2,-5.282243E-2,-1.8409658E-2,-4.7608644E-2,-1.4395838E-2,1.8265901E-2,1.8415488E-3,5.7782847E-2,-2.6928866E-3,4.8276078E-2,-1.7522633E-2,4.598443E-2],"split_indices":[5,1,1,4,4,4,2,1,2,1,2,4,2,1,0,4,2,1,4,0,0,1,0,1,2,4,6,4,6,4,1,0,4,2,2,2,0,6,0,4,0,6,0,1,2,0,0,4,0,4,0,0,0,0,0,0,0,0,0,0,0,0,0,0,0,0,0,0,0,0,0,0,0,0,0,0,0],"split_type":[0,0,0,0,0,0,0,0,0,0,0,0,0,0,0,0,0,0,0,0,0,0,0,0,0,0,0,0,0,0,0,0,0,0,0,0,0,0,0,0,0,0,0,0,0,0,0,0,0,0,0,0,0,0,0,0,0,0,0,0,0,0,0,0,0,0,0,0,0,0,0,0,0,0,0,0,0],"sum_hessian":[5.034964E2,2.6417004E2,2.3932639E2,2.2585713E2,3.83129E1,2.1970657E2,1.9619806E1,1.4800998E2,7.7847145E1,2.0786629E1,1.7526272E1,1.8738435E2,3.2322224E1,1.5489578E1,4.1302285E0,1.3232416E2,1.56858225E1,6.6655754E1,1.1191387E1,1.9588272E1,1.1983556E0,1.4481065E1,3.0452068E0,1.05702705E2,8.168165E1,2.4335154E1,7.987069E0,8.033709E0,7.4558697E0,7.963837E1,5.26858E1,7.270546E0,8.4152775E0,4.364634E1,2.3009417E1,9.975678E0,1.2157087E0,1.0403682E1,4.077383E0,8.527719E1,2.0425512E1,5.6947365E1,2.4734285E1,1.7609062E1,6.726092E0,6.545682E0,1.4413869E0,6.337031E0,1.6966774E0,3.1138012E0,4.342068E0,2.2264097E1,5.7374268E1,1.5123082E1,3.7562714E1,5.3837757E0,3.0315015E0,2.0240423E1,2.3405916E1,1.4664227E1,8.345191E0,2.558778E0,7.4169E0,6.853964E0,3.5497181E0,2.9319854E0,8.234521E1,5.254651E1,4.4008584E0,7.8838587E0,9.725203E0,2.9140077E0,3.8120842E0,4.1325207E0,2.2045102E0,1.2000583E0,1.9137429E0],"tree_param":{"num_deleted":"0","num_feature":"7","num_nodes":"77","size_leaf_vector":"1"}},{"base_weights":[3.571603E-3,5.3201485E-1,-5.9789634E-1,4.5617056E-1,1.3086786E0,-6.946098E-1,5.671997E-1,4.262848E-1,8.2332216E-2,6.752054E-2,9.309041E-3,-7.912918E-1,-8.081593E-2,2.5058582E-1,7.096243E-2,-5.779573E-1,4.5587108E-1,-9.269407E-1,-6.08119E-1,3.2000855E-1,-3.5339952E-1,-5.6136936E-2,8.7845E-1,-6.936219E-1,-1.3036496E-2,6.9368166E-1,2.9203883E-1,-4.9409844E-2,-5.9306306E-1,-3.3532903E-1,-7.4931103E-1,5.5017713E-2,6.902306E-1,-2.979565E-2,1.6837823E-1,-3.3756E-1,6.090806E-1,7.1969754E-3,5.2655287E-2,-1.0847698E-2,-4.062579E-2,1.9786103E-2,5.6677457E-2,9.482895E-2,1.150309E-2,4.545281E-3,-3.4858298E-2,-2.0791575E-2,2.495188E-2,-4.0190514E-2,-2.2427656E-2,3.1346247E-2,-2.7517086E-2,7.87519E-3,6.0380865E-2,-1.829341E-2,1.935803E-2,1.6688928E-2,-3.17599E-2,4.3686923E-2,3.466782E-3],"categories":[],"categories_nodes":[],"categories_segments":[],"categories_sizes":[],"default_left":[0,0,0,0,0,0,0,0,0,0,0,0,0,0,0,0,0,0,0,0,0,0,0,0,0,0,0,0,0,0,0,0,0,0,0,0,0,0,0,0,0,0,0,0,0,0,0,0,0,0,0,0,0,0,0,0,0,0,0,0,0],"id":18,"left_children":[1,3,5,7,9,11,13,15,-1,-1,-1,17,19,21,-1,23,25,27,29,31,33,35,37,39,-1,41,43,-1,45,47,49,51,53,-1,55,57,59,-1,-1,-1,-1,-1,-1,-1,-1,-1,-1,-1,-1,-1,-1,-1,-1,-1,-1,-1,-1,-1,-1,-1,-1],"loss_changes":[1.6122345E2,1.5308105E1,2.7125603E1,8.1045E0,8.487892E-1,1.2961807E1,4.698145E0,7.4778214E0,0E0,0E0,0E0,4.1452713E0,3.4982858E0,2.913513E0,0E0,9.0296745E-2,9.008633E0,1.6018066E0,2.9663792E0,1.2439042E0,2.4940743E0,2.252078E0,4.8230147E-1,9.648776E-2,0E0,1.2095493E1,1.3656053E1,0E0,1.4222865E0,2.242882E0,5.284767E-1,3.3577678E0,1.2883224E0,0E0,9.3437696E-1,1.8755217E0,4.545846E-1,0E0,0E0,0E0,0E0,0E0,0E0,0E0,0E0,0E0,0E0,0E0,0E0,0E0,0E0,0E0,0E0,0E0,0E0,0E0,0E0,0E0,0E0,0E0,0E0],"parents":[2147483647,0,0,1,1,2,2,3,3,4,4,5,5,6,6,7,7,11,11,12,12,13,13,15,15,16,16,17,17,18,18,19,19,20,20,21,21,22,22,23,23,25,25,26,26,28,28,29,29,30,30,31,31,32,32,34,34,35,35,36,36],"right_children":[2,4,6,8,10,12,14,16,-1,-1,-1,18,20,22,-1,24,26,28,30,32,34,36,38,40,-1,42,44,-1,46,48,50,52,54,-1,56,58,60,-1,-1,-1,-1,-1,-1,-1,-1,-1,-1,-1,-1,-1,-1,-1,-1,-1,-1,-1,-1,-1,-1,-1,-1],"split_conditions":[8.064195E-1,1.7014663E0,1.3107154E0,1.1545631E1,1.0662685E1,1.365746E0,2.8737187E0,-8.514392E-1,8.2332216E-2,6.752054E-2,9.309041E-3,2.1618139E-2,4.2501354E-1,3.0603306E0,7.096243E-2,-8.7748927E-1,2.1618139E-2,-1.7413774E-1,-1.2203763E-1,2.166131E-1,2.709874E0,3.3819377E0,1.8577666E0,-9.295894E-1,-1.3036496E-2,-3.825382E-1,-5.388385E-1,-4.9409844E-2,-1.2203763E-1,-1.4808768E-1,6.3341403E-1,3.426271E-2,2.0378098E0,-2.979565E-2,6.3341403E-1,1.4409658E0,1.6754162E0,7.1969754E-3,5.2655287E-2,-1.0847698E-2,-4.062579E-2,1.9786103E-2,5.6677457E-2,9.482895E-2,1.150309E-2,4.545281E-3,-3.4858298E-2,-2.0791575E-2,2.495188E-2,-4.0190514E-2,-2.2427656E-2,3.1346247E-2,-2.7517086E-2,7.87519E-3,6.0380865E-2,-1.829341E-2,1.935803E-2,1.6688928E-2,-3.17599E-2,4.3686923E-2,3.466782E-3],"split_indices":[5,0,0,3,0,4,0,0,0,0,0,4,0,6,0,0,4,0,0,0,4,4,0,0,0,0,0,0,0,0,0,0,4,0,0,0,0,0,0,0,0,0,0,0,0,0,0,0,0,0,0,0,0,0,0,0,0,0,0,0,0],"split_type":[0,0,0,0,0,0,0,0,0,0,0,0,0,0,0,0,0,0,0,0,0,0,0,0,0,0,0,0,0,0,0,0,0,0,0,0,0,0,0,0,0,0,0,0,0,0,0,0,0,0,0,0,0,0,0,0,0,0,0,0,0],"sum_hessian":[5.0524377E2,2.6900998E2,2.362338E2,2.4652333E2,2.248664E1,2.1850014E2,1.773366E1,2.4181096E2,4.7123632E0,2.148484E1,1.001801E0,1.8851668E2,2.998345E1,1.3872761E1,3.8608987E0,6.389763E0,2.354212E2,1.0597569E2,8.254099E1,1.206634E1,1.7917109E1,9.931593E0,3.9411683E0,3.8129902E0,2.5767725E0,9.471036E1,1.4071085E2,8.7890724E1,1.8084967E1,2.9302364E1,5.3238625E1,7.702087E0,4.3642535E0,1.2134921E1,5.782189E0,7.3251953E0,2.6063976E0,1.1075455E0,2.833623E0,1.3251169E0,2.4878733E0,5.75956E1,3.7114758E1,4.132115E0,1.3657874E2,2.40574E0,1.5679227E1,2.718143E1,2.1209345E0,4.3655384E1,9.583241E0,3.9421532E0,3.7599335E0,2.7929335E0,1.5713199E0,1.4846113E0,4.2975774E0,2.2127633E0,5.112432E0,1.333656E0,1.2727417E0],"tree_param":{"num_deleted":"0","num_feature":"7","num_nodes":"61","size_leaf_vector":"1"}},{"base_weights":[-8.807143E-3,4.6154517E-1,-5.7237804E-1,3.1811565E-1,1.2876005E0,-7.043397E-1,8.3028823E-1,-3.23687E-1,3.9129347E-1,1.7490867E0,5.6923366E-1,-8.720709E-1,-2.927325E-1,4.4214848E-1,1.3022059E0,-3.374425E-2,-8.765848E-3,2.655124E-1,5.9693605E-1,8.944742E-2,2.6772607E-2,2.6762378E-1,1.0524232E0,-9.749646E-1,-6.464619E-1,-3.5405302E-1,4.7421163E-1,4.9749896E-1,1.0183356E-2,1.4120667E0,2.3320703E-2,5.6774163E-1,-1.01680286E-1,8.6135006E-1,-4.3269494E-3,-3.7873827E-2,3.6279943E-2,5.602643E-1,6.698309E-2,-1.5458198E-2,-4.9613804E-2,-3.7744086E-2,-3.816509E-1,-4.8832527E-1,-1.8653098E-1,5.5653076E-3,4.2986184E-2,3.2721806E-1,3.129311E-2,2.8172523E-2,8.188336E-2,-2.011897E-3,3.9018787E-2,-1.1818232E-2,3.9164696E-2,4.5249943E-2,2.263123E-2,-6.5370584E-3,6.44572E-2,-2.1955788E-2,4.904032E-2,6.5618055E-3,4.0187728E-2,-1.583442E-2,-3.2462277E-2,-8.246007E-3,-3.8351554E-2,-2.1507949E-2,2.4039322E-3,3.1039804E-2,-8.26083E-3],"categories":[],"categories_nodes":[],"categories_segments":[],"categories_sizes":[],"default_left":[0,0,0,0,0,0,0,0,0,0,0,0,0,0,0,0,0,0,0,0,0,0,0,0,0,0,0,0,0,0,0,0,0,0,0,0,0,0,0,0,0,0,0,0,0,0,0,0,0,0,0,0,0,0,0,0,0,0,0,0,0,0,0,0,0,0,0,0,0,0,0],"id":19,"left_children":[1,3,5,7,9,11,13,15,17,19,21,23,25,27,29,-1,-1,31,33,-1,-1,35,37,39,41,43,45,47,-1,49,-1,51,53,55,57,59,-1,61,-1,-1,-1,-1,63,65,67,-1,-1,69,-1,-1,-1,-1,-1,-1,-1,-1,-1,-1,-1,-1,-1,-1,-1,-1,-1,-1,-1,-1,-1,-1,-1],"loss_changes":[1.3205937E2,3.1765652E1,4.2533745E1,1.105637E1,1.2214737E1,1.4083084E1,3.0778875E0,1.1513116E0,5.2565765E0,1.9249725E-1,2.2058468E0,2.7833023E0,3.066526E0,6.313515E-2,1.2074947E-1,0E0,0E0,1.4673302E1,1.2507896E1,0E0,0E0,1.6854111E0,1.2855864E-1,8.345642E-1,1.1194954E0,1.2055273E0,6.0250926E-1,1.0831356E-3,0E0,4.190235E-1,0E0,9.390062E0,7.373348E0,5.650444E-1,4.2593813E0,3.7245688E0,0E0,3.1349206E-1,0E0,0E0,0E0,0E0,7.7124596E-2,2.701868E0,1.5790553E0,0E0,0E0,9.9080735E-1,0E0,0E0,0E0,0E0,0E0,0E0,0E0,0E0,0E0,0E0,0E0,0E0,0E0,0E0,0E0,0E0,0E0,0E0,0E0,0E0,0E0,0E0,0E0],"parents":[2147483647,0,0,1,1,2,2,3,3,4,4,5,5,6,6,7,7,8,8,9,9,10,10,11,11,12,12,13,13,14,14,17,17,18,18,21,21,22,22,23,23,24,24,25,25,26,26,27,27,29,29,31,31,32,32,33,33,34,34,35,35,37,37,42,42,43,43,44,44,47,47],"right_children":[2,4,6,8,10,12,14,16,18,20,22,24,26,28,30,-1,-1,32,34,-1,-1,36,38,40,42,44,46,48,-1,50,-1,52,54,56,58,60,-1,62,-1,-1,-1,-1,64,66,68,-1,-1,70,-1,-1,-1,-1,-1,-1,-1,-1,-1,-1,-1,-1,-1,-1,-1,-1,-1,-1,-1,-1,-1,-1,-1],"split_conditions":[8.064195E-1,1.9251482E0,1.9251482E0,-6.5044576E-1,6.936821E-1,6.936821E-1,3.04644E0,-3.174349E-1,6.936821E-1,5.289023E0,3.04644E0,2.1618139E-2,3.3819377E0,2.0378098E0,3.3819377E0,-3.374425E-2,-8.765848E-3,2.1618139E-2,8.0385673E-1,8.944742E-2,2.6772607E-2,3.0603306E0,2.0378098E0,-6.5044576E-1,8.0385673E-1,1.365746E0,4.7260656E0,6.936821E-1,1.0183356E-2,3.0603306E0,2.3320703E-2,-3.174349E-1,8.0385673E-1,3.0603306E0,3.0603306E0,3.3819377E0,3.6279943E-2,4.1677313E0,6.698309E-2,-1.5458198E-2,-4.9613804E-2,-3.7744086E-2,3.0603306E0,8.0385673E-1,8.0385673E-1,5.5653076E-3,4.2986184E-2,3.0603306E0,3.129311E-2,2.8172523E-2,8.188336E-2,-2.011897E-3,3.9018787E-2,-1.1818232E-2,3.9164696E-2,4.5249943E-2,2.263123E-2,-6.5370584E-3,6.44572E-2,-2.1955788E-2,4.904032E-2,6.5618055E-3,4.0187728E-2,-1.583442E-2,-3.2462277E-2,-8.246007E-3,-3.8351554E-2,-2.1507949E-2,2.4039322E-3,3.1039804E-2,-8.26083E-3],"split_indices":[5,1,1,4,4,4,1,1,4,1,1,4,4,4,4,0,0,4,1,0,0,6,4,4,1,4,4,4,0,6,0,1,1,6,6,4,0,1,0,0,0,0,6,1,1,0,0,6,0,0,0,0,0,0,0,0,0,0,0,0,0,0,0,0,0,0,0,0,0,0,0],"split_type":[0,0,0,0,0,0,0,0,0,0,0,0,0,0,0,0,0,0,0,0,0,0,0,0,0,0,0,0,0,0,0,0,0,0,0,0,0,0,0,0,0,0,0,0,0,0,0,0,0,0,0,0,0,0,0,0,0,0,0,0,0,0,0,0,0,0,0,0,0,0,0],"sum_hessian":[4.9619608E2,2.7056525E2,2.2563083E2,2.3171692E2,3.884833E1,2.0668404E2,1.8946798E1,2.3365713E1,2.0835121E2,2.2779648E1,1.6068684E1,1.4604964E2,6.063439E1,1.1458997E1,7.487802E0,5.8855987E0,1.7480114E1,1.3069989E2,7.7651306E1,2.1596281E1,1.1833671E0,1.084995E1,5.2187347E0,9.8022804E1,4.802684E1,5.664383E1,3.9905624E0,8.418896E0,3.0401013E0,6.008517E0,1.4792851E0,7.13922E1,5.93077E1,5.3632908E1,2.4018402E1,7.0586777E0,3.791272E0,3.0106902E0,2.2080445E0,2.9620218E0,9.5060776E1,3.276248E1,1.5264359E1,3.0379261E1,2.6264568E1,2.7193754E0,1.2711871E0,5.1441083E0,3.2747872E0,1.9964087E0,4.0121083E0,1.870894E1,5.2683254E1,5.2109985E1,7.1977124E0,4.736092E1,6.271987E0,2.2698904E1,1.3194994E0,5.4722013E0,1.5864764E0,1.6472415E0,1.3634487E0,1.4039524E1,1.2248352E0,1.4798774E1,1.5580488E1,1.2475746E1,1.3788823E1,3.0594618E0,2.0846467E0],"tree_param":{"num_deleted":"0","num_feature":"7","num_nodes":"71","size_leaf_vector":"1"}},{"base_weights":[1.6361803E-2,4.8323873E-1,-5.5115515E-1,3.7632576E-1,1.0983834E0,-6.782886E-1,6.8883705E-1,-2.5603288E-1,4.455696E-1,1.6449493E0,3.7283036E-1,-8.083423E-1,3.893198E-2,3.2973945E-1,1.0940472E0,-3.9813798E-2,-2.478133E-3,3.6112204E-1,7.438042E-1,8.413758E-2,2.6097853E-2,1.4958684E-1,8.473302E-1,-9.6850955E-1,-5.95664E-1,-1.7501044E-1,2.902931E-2,9.701064E-2,4.948695E-1,1.2420176E0,7.640421E-3,5.885769E-1,1.7986158E-1,8.731561E-1,3.5188812E-1,-1.920122E-1,4.061871E-2,4.252156E-1,5.759517E-2,-1.3519158E-2,-9.8626655E-1,-5.477969E-1,-4.8647515E-2,-2.2623919E-2,1.3971427E-1,2.9553428E-1,-1.6832396E-2,2.6894426E-1,4.3630086E-2,4.209547E-1,7.367957E-2,-3.1154402E-4,3.9827656E-2,2.7365013E-4,2.2374328E-2,3.9044686E-2,6.3136555E-2,2.3037931E-2,-6.353156E-3,-2.3463618E-2,3.238783E-2,3.0290222E-2,-4.062761E-4,-5.2007314E-2,-3.6119193E-2,-3.1373203E-2,-2.018265E-2,4.1354733E-4,2.099597E-2,4.2699654E-2,-1.2069805E-2,2.087446E-2,5.925915E-3,-1.30593395E-2,4.3086246E-2],"categories":[],"categories_nodes":[],"categories_segments":[],"categories_sizes":[],"default_left":[0,0,0,0,0,0,0,0,0,0,0,0,0,0,0,0,0,0,0,0,0,0,0,0,0,0,0,0,0,0,0,0,0,0,0,0,0,0,0,0,0,0,0,0,0,0,0,0,0,0,0,0,0,0,0,0,0,0,0,0,0,0,0,0,0,0,0,0,0,0,0,0,0,0,0],"id":20,"left_children":[1,3,5,7,9,11,13,15,17,19,21,23,25,27,29,-1,-1,31,33,-1,-1,35,37,39,41,43,-1,45,47,49,-1,51,53,55,57,59,-1,61,-1,-1,63,65,-1,-1,67,69,-1,71,-1,73,-1,-1,-1,-1,-1,-1,-1,-1,-1,-1,-1,-1,-1,-1,-1,-1,-1,-1,-1,-1,-1,-1,-1,-1,-1],"loss_changes":[1.3149739E2,1.7492989E1,3.578205E1,1.0337307E1,1.5167114E1,1.9030884E1,2.7426977E0,2.601651E0,5.0404015E0,7.271576E-2,1.8212984E0,5.298073E0,3.8352833E0,4.4155312E-1,1.1457548E0,0E0,0E0,6.7473507E0,2.0031204E0,0E0,0E0,3.2624276E0,2.3909664E-1,9.3309784E-1,8.519535E-1,2.1472588E0,0E0,6.6175896E-1,3.80427E-1,9.285803E-1,0E0,9.069973E0,4.3820877E0,2.2126389E-1,7.355871E-1,2.6004052E0,0E0,3.149274E-1,0E0,0E0,5.8514404E-1,5.544853E-1,0E0,0E0,4.36507E-1,1.7092046E0,0E0,8.360073E-2,0E0,1.1848102E0,0E0,0E0,0E0,0E0,0E0,0E0,0E0,0E0,0E0,0E0,0E0,0E0,0E0,0E0,0E0,0E0,0E0,0E0,0E0,0E0,0E0,0E0,0E0,0E0,0E0],"parents":[2147483647,0,0,1,1,2,2,3,3,4,4,5,5,6,6,7,7,8,8,9,9,10,10,11,11,12,12,13,13,14,14,17,17,18,18,21,21,22,22,23,23,24,24,25,25,27,27,28,28,29,29,31,31,32,32,33,33,34,34,35,35,37,37,40,40,41,41,44,44,45,45,47,47,49,49],"right_children":[2,4,6,8,10,12,14,16,18,20,22,24,26,28,30,-1,-1,32,34,-1,-1,36,38,40,42,44,-1,46,48,50,-1,52,54,56,58,60,-1,62,-1,-1,64,66,-1,-1,68,70,-1,72,-1,74,-1,-1,-1,-1,-1,-1,-1,-1,-1,-1,-1,-1,-1,-1,-1,-1,-1,-1,-1,-1,-1,-1,-1,-1,-1],"split_conditions":[8.064195E-1,1.9251482E0,1.9251482E0,-6.5044576E-1,6.936821E-1,1.365746E0,3.04644E0,-3.174349E-1,1.365746E0,5.289023E0,3.04644E0,2.1618139E-2,2.709874E0,6.936821E-1,2.709874E0,-3.9813798E-2,-2.478133E-3,2.1618139E-2,8.0385673E-1,8.413758E-2,2.6097853E-2,3.0603306E0,2.0378098E0,-6.5044576E-1,3.0603306E0,8.0385673E-1,2.902931E-2,2.1618139E-2,3.0603306E0,3.0603306E0,7.640421E-3,-3.174349E-1,6.936821E-1,3.3819377E0,2.709874E0,3.3819377E0,4.061871E-2,3.0603306E0,5.759517E-2,-1.3519158E-2,8.0385673E-1,8.0385673E-1,-4.8647515E-2,-2.2623919E-2,2.0378098E0,3.0603306E0,-1.6832396E-2,1.365746E0,4.3630086E-2,4.1677313E0,7.367957E-2,-3.1154402E-4,3.9827656E-2,2.7365013E-4,2.2374328E-2,3.9044686E-2,6.3136555E-2,2.3037931E-2,-6.353156E-3,-2.3463618E-2,3.238783E-2,3.0290222E-2,-4.062761E-4,-5.2007314E-2,-3.6119193E-2,-3.1373203E-2,-2.018265E-2,4.1354733E-4,2.099597E-2,4.2699654E-2,-1.2069805E-2,2.087446E-2,5.925915E-3,-1.30593395E-2,4.3086246E-2],"split_indices":[5,1,1,4,4,4,1,1,4,1,1,4,4,4,4,0,0,4,1,0,0,6,4,4,6,1,0,4,6,6,0,1,4,4,4,4,0,6,0,0,1,1,0,0,4,6,0,4,0,1,0,0,0,0,0,0,0,0,0,0,0,0,0,0,0,0,0,0,0,0,0,0,0,0,0],"split_type":[0,0,0,0,0,0,0,0,0,0,0,0,0,0,0,0,0,0,0,0,0,0,0,0,0,0,0,0,0,0,0,0,0,0,0,0,0,0,0,0,0,0,0,0,0,0,0,0,0,0,0,0,0,0,0,0,0,0,0,0,0,0,0,0,0,0,0,0,0,0,0,0,0,0,0],"sum_hessian":[4.9428525E2,2.7126953E2,2.2301572E2,2.3247655E2,3.8792965E1,2.0268764E2,2.0328085E1,2.2677773E1,2.0979878E2,2.1402842E1,1.7390123E1,1.7146823E2,3.1219402E1,1.17388525E1,8.589233E0,5.4806566E0,1.7197117E1,1.6522487E2,4.4573902E1,2.0223618E1,1.1792241E0,1.2720577E1,4.669547E0,9.578156E1,7.568667E1,2.2865063E1,8.35434E0,5.5310516E0,6.2078004E0,7.1462307E0,1.4430027E0,7.2278725E1,9.294615E1,3.2589745E1,1.1984159E1,8.862936E0,3.857641E0,2.961392E0,1.7081549E0,2.7782881E0,9.300327E1,6.934115E1,6.345517E0,1.1919173E1,1.0945889E1,4.012628E0,1.5184236E0,4.9557285E0,1.2520719E0,2.192026E0,4.9542046E0,1.8976465E1,5.330226E1,5.689375E1,3.60524E1,2.8778625E1,3.811119E0,9.795522E0,2.1886375E0,6.994728E0,1.8682079E0,1.8093752E0,1.1520168E0,7.479077E1,1.8212503E1,4.249918E1,2.6841972E1,8.151544E0,2.7943459E0,1.6774306E0,2.3351977E0,1.6001793E0,3.355549E0,1.0203502E0,1.1716757E0],"tree_param":{"num_deleted":"0","num_feature":"7","num_nodes":"75","size_leaf_vector":"1"}},{"base_weights":[8.833301E-3,4.0678865E-1,-4.8270345E-1,3.001101E-1,1.073484E0,-6.148775E-1,7.7373344E-1,-3.5832703E-1,3.6648154E-1,1.5741602E0,4.79974E-1,-9.267936E-1,-3.3462104E-1,3.8520867E-1,1.1386929E0,-3.0726915E-2,-1.2079168E-2,2.6995075E-1,7.3017454E-1,8.074696E-2,2.5444165E-2,1.6543187E-1,6.072238E-2,-1.382451E-2,-9.440893E-1,-4.1089478E-1,4.1701657E-1,9.534471E-3,3.3862077E-2,5.53751E-1,7.17435E-2,4.9081752E-1,1.0258413E-1,7.880534E-1,5.232884E-1,-2.769696E-1,6.3505185E-1,-5.0295323E-2,-3.2884043E-2,-3.6444134E-1,-7.52693E-1,2.016401E-1,3.6267918E-2,2.828632E-1,-3.224616E-2,1.4703202E-1,4.0217426E-2,-6.0337293E-4,3.3538647E-2,2.3296012E-2,-1.7380835E-3,3.3277642E-2,6.414225E-2,3.9137006E-2,-1.6091362E-2,-3.2751806E-2,3.1171082E-2,4.0984295E-2,5.190991E-3,-2.298622E-2,-1.313484E-2,-4.8440363E-2,-1.0227789E-2,1.513192E-2,-4.090742E-3,2.7694628E-2,-5.1482366E-3,-1.2140053E-2,2.1922832E-2],"categories":[],"categories_nodes":[],"categories_segments":[],"categories_sizes":[],"default_left":[0,0,0,0,0,0,0,0,0,0,0,0,0,0,0,0,0,0,0,0,0,0,0,0,0,0,0,0,0,0,0,0,0,0,0,0,0,0,0,0,0,0,0,0,0,0,0,0,0,0,0,0,0,0,0,0,0,0,0,0,0,0,0,0,0,0,0,0,0],"id":21,"left_children":[1,3,5,7,9,11,13,15,17,19,21,23,25,27,29,-1,-1,31,33,-1,-1,35,-1,-1,37,39,41,43,-1,45,-1,47,49,51,53,55,57,-1,-1,59,61,63,-1,65,-1,67,-1,-1,-1,-1,-1,-1,-1,-1,-1,-1,-1,-1,-1,-1,-1,-1,-1,-1,-1,-1,-1,-1,-1],"loss_changes":[9.4792725E1,1.8722946E1,3.648219E1,1.0280153E1,1.0105324E1,1.6887909E1,2.550478E0,5.0273895E-1,7.226736E0,2.0355225E-2,3.9951315E0,7.798538E-1,6.202058E0,1.2795305E0,1.0000286E0,0E0,0E0,6.185519E0,1.1169815E-1,0E0,0E0,3.0584705E0,0E0,0E0,9.2715454E-1,1.2500267E0,5.302839E-1,1.2809397E0,0E0,4.0259922E-1,0E0,6.5654144E0,4.8684435E0,1.0992832E0,3.0023913E0,3.0773695E0,6.0481143E-1,0E0,0E0,7.17391E-1,1.0513577E0,2.3612246E-1,0E0,5.8270437E-1,0E0,4.668171E-1,0E0,0E0,0E0,0E0,0E0,0E0,0E0,0E0,0E0,0E0,0E0,0E0,0E0,0E0,0E0,0E0,0E0,0E0,0E0,0E0,0E0,0E0,0E0],"parents":[2147483647,0,0,1,1,2,2,3,3,4,4,5,5,6,6,7,7,8,8,9,9,10,10,11,11,12,12,13,13,14,14,17,17,18,18,21,21,24,24,25,25,26,26,27,27,29,29,31,31,32,32,33,33,34,34,35,35,36,36,39,39,40,40,41,41,43,43,45,45],"right_children":[2,4,6,8,10,12,14,16,18,20,22,24,26,28,30,-1,-1,32,34,-1,-1,36,-1,-1,38,40,42,44,-1,46,-1,48,50,52,54,56,58,-1,-1,60,62,64,-1,66,-1,68,-1,-1,-1,-1,-1,-1,-1,-1,-1,-1,-1,-1,-1,-1,-1,-1,-1,-1,-1,-1,-1,-1,-1],"split_conditions":[8.064195E-1,1.9251482E0,1.9251482E0,-6.5044576E-1,6.936821E-1,2.1618139E-2,3.04644E0,-3.174349E-1,1.365746E0,5.289023E0,2.709874E0,-6.5044576E-1,2.709874E0,6.936821E-1,3.0603306E0,-3.0726915E-2,-1.2079168E-2,2.1618139E-2,8.0385673E-1,8.074696E-2,2.5444165E-2,3.0603306E0,6.072238E-2,-1.382451E-2,8.0385673E-1,3.0603306E0,4.054002E0,2.1618139E-2,3.3862077E-2,2.709874E0,7.17435E-2,-3.174349E-1,-3.174349E-1,3.3819377E0,2.709874E0,3.04644E0,3.04644E0,-5.0295323E-2,-3.2884043E-2,6.936821E-1,1.365746E0,3.3819377E0,3.6267918E-2,3.0603306E0,-3.224616E-2,4.1677313E0,4.0217426E-2,-6.0337293E-4,3.3538647E-2,2.3296012E-2,-1.7380835E-3,3.3277642E-2,6.414225E-2,3.9137006E-2,-1.6091362E-2,-3.2751806E-2,3.1171082E-2,4.0984295E-2,5.190991E-3,-2.298622E-2,-1.313484E-2,-4.8440363E-2,-1.0227789E-2,1.513192E-2,-4.090742E-3,2.7694628E-2,-5.1482366E-3,-1.2140053E-2,2.1922832E-2],"split_indices":[5,1,1,4,4,4,1,1,4,1,4,4,4,4,6,0,0,4,1,0,0,6,0,0,1,6,4,4,0,4,0,1,1,4,4,1,1,0,0,4,4,4,0,6,0,1,0,0,0,0,0,0,0,0,0,0,0,0,0,0,0,0,0,0,0,0,0,0,0],"split_type":[0,0,0,0,0,0,0,0,0,0,0,0,0,0,0,0,0,0,0,0,0,0,0,0,0,0,0,0,0,0,0,0,0,0,0,0,0,0,0,0,0,0,0,0,0,0,0,0,0,0,0,0,0,0,0,0,0,0,0,0,0,0,0,0,0,0,0,0,0],"sum_hessian":[4.825976E2,2.6678058E2,2.1581703E2,2.312312E2,3.5549377E1,1.9573665E2,2.0080393E1,2.077127E1,2.1045993E2,1.8386501E1,1.7162876E1,9.1544136E1,1.04192505E2,1.0721786E1,9.358606E0,5.1671643E0,1.5604107E1,1.676933E2,4.276663E1,1.7211655E1,1.1748458E0,1.287453E1,4.288346E0,2.811729E0,8.873241E1,9.5005035E1,9.187468E0,5.140999E0,5.580787E0,4.1103797E0,5.248227E0,7.14591E1,9.623419E1,3.1222618E1,1.154401E1,6.840614E0,6.033916E0,7.09144E1,1.7818007E1,8.5456924E1,9.548112E0,6.38294E0,2.8045278E0,4.026962E0,1.1140368E0,2.1719835E0,1.9383962E0,1.9078161E1,5.2380943E1,2.5742468E1,7.049172E1,2.6906279E1,4.3163395E0,8.888909E0,2.6551008E0,5.0096173E0,1.8309968E0,4.074723E0,1.9591932E0,4.231283E1,4.3144093E1,6.2976723E0,3.2504394E0,4.6562033E0,1.7267364E0,2.109514E0,1.9174478E0,1.0004921E0,1.1714913E0],"tree_param":{"num_deleted":"0","num_feature":"7","num_nodes":"69","size_leaf_vector":"1"}},{"base_weights":[-2.2992373E-2,3.7552324E-1,-5.380332E-1,2.6000085E-1,1.0790932E0,-6.3641846E-1,4.6088204E-1,1.353281E-1,4.8773435E-1,7.722501E-2,4.68392E-1,-7.507431E-1,-5.870353E-2,1.3167657E-1,8.919071E-1,1.8628022E-2,1.0049741E0,6.372662E-1,1.4127707E-1,2.6927626E-1,5.6855734E-2,-9.155803E-1,-5.464737E-1,-1.6994691E-1,4.773433E-2,2.1287523E-1,-7.5424455E-2,6.439016E-2,1.1449406E-1,1.8812983E-1,-2.7082607E-1,5.811143E-2,3.1684387E-2,3.4629412E-2,1.4867595E-1,2.1635538E-2,5.7654243E-2,-7.990609E-2,3.5890184E-2,-4.863335E-2,-3.2619786E-2,-2.4820099E-2,-4.796505E-2,-2.7091322E-2,1.5109217E-1,4.088752E-2,-8.5033365E-2,-2.497926E-2,3.0909607E-2,3.4661945E-2,-3.1606816E-2,-1.3634771E-2,1.7451696E-2,5.3132226E-4,-1.9996515E-2,-2.5960362E-2,3.907254E-2,-1.2210513E-2,1.3411271E-2,-2.1874933E-2,4.4801682E-2,1.3888811E-3,1.3862001E-2,-1.066598E-2,-1.0571567E-3],"categories":[],"categories_nodes":[],"categories_segments":[],"categories_sizes":[],"default_left":[0,0,0,0,0,0,0,0,0,0,0,0,0,0,0,0,0,0,0,0,0,0,0,0,0,0,0,0,0,0,0,0,0,0,0,0,0,0,0,0,0,0,0,0,0,0,0,0,0,0,0,0,0,0,0,0,0,0,0,0,0,0,0,0,0],"id":22,"left_children":[1,3,5,7,9,11,13,15,17,-1,19,21,23,25,27,29,31,33,35,37,-1,39,41,43,-1,45,47,-1,49,51,53,-1,-1,-1,55,57,-1,59,-1,-1,-1,-1,-1,-1,61,-1,63,-1,-1,-1,-1,-1,-1,-1,-1,-1,-1,-1,-1,-1,-1,-1,-1,-1,-1],"loss_changes":[9.972986E1,2.1986954E1,2.1122349E1,6.6528597E0,1.0168648E1,1.2726532E1,2.6612563E0,1.564183E1,4.2272663E0,0E0,2.0917869E0,4.9318085E0,3.885497E0,2.2249189E-1,2.4091625E0,6.776083E0,3.2838058E-1,1.4627647E0,3.171965E0,2.435989E0,0E0,6.845932E-1,1.0643597E0,3.736229E0,0E0,1.7057415E0,1.5432807E0,0E0,2.1236317E0,6.5489473E0,1.8586276E0,0E0,0E0,0E0,3.4338493E0,1.6804818E0,0E0,3.6862175E0,0E0,0E0,0E0,0E0,0E0,0E0,2.6000684E-1,0E0,5.277781E-2,0E0,0E0,0E0,0E0,0E0,0E0,0E0,0E0,0E0,0E0,0E0,0E0,0E0,0E0,0E0,0E0,0E0,0E0],"parents":[2147483647,0,0,1,1,2,2,3,3,4,4,5,5,6,6,7,7,8,8,10,10,11,11,12,12,13,13,14,14,15,15,16,16,17,17,18,18,19,19,21,21,22,22,23,23,25,25,26,26,28,28,29,29,30,30,34,34,35,35,37,37,44,44,46,46],"right_children":[2,4,6,8,10,12,14,16,18,-1,20,22,24,26,28,30,32,34,36,38,-1,40,42,44,-1,46,48,-1,50,52,54,-1,-1,-1,56,58,-1,60,-1,-1,-1,-1,-1,-1,62,-1,64,-1,-1,-1,-1,-1,-1,-1,-1,-1,-1,-1,-1,-1,-1,-1,-1,-1,-1],"split_conditions":[8.064195E-1,1.9251482E0,1.9251482E0,6.936821E-1,6.936821E-1,1.365746E0,3.04644E0,8.0385673E-1,8.0385673E-1,7.722501E-2,3.3819377E0,2.1618139E-2,4.054002E0,3.0603306E0,1.365746E0,2.1618139E-2,2.1618139E-2,3.0603306E0,3.0603306E0,3.0603306E0,5.6855734E-2,8.0385673E-1,3.0603306E0,8.0385673E-1,4.773433E-2,2.1618139E-2,2.1618139E-2,6.439016E-2,4.1677313E0,-6.5044576E-1,-3.174349E-1,5.811143E-2,3.1684387E-2,3.4629412E-2,2.0378098E0,1.365746E0,5.7654243E-2,3.04644E0,3.5890184E-2,-4.863335E-2,-3.2619786E-2,-2.4820099E-2,-4.796505E-2,-2.7091322E-2,2.0378098E0,4.088752E-2,6.936821E-1,-2.497926E-2,3.0909607E-2,3.4661945E-2,-3.1606816E-2,-1.3634771E-2,1.7451696E-2,5.3132226E-4,-1.9996515E-2,-2.5960362E-2,3.907254E-2,-1.2210513E-2,1.3411271E-2,-2.1874933E-2,4.4801682E-2,1.3888811E-3,1.3862001E-2,-1.066598E-2,-1.0571567E-3],"split_indices":[5,1,1,4,4,4,1,1,1,0,4,4,4,6,4,4,4,6,6,6,0,1,6,1,0,4,4,0,1,4,1,0,0,0,4,4,0,1,0,0,0,0,0,0,4,0,4,0,0,0,0,0,0,0,0,0,0,0,0,0,0,0,0,0,0],"split_type":[0,0,0,0,0,0,0,0,0,0,0,0,0,0,0,0,0,0,0,0,0,0,0,0,0,0,0,0,0,0,0,0,0,0,0,0,0,0,0,0,0,0,0,0,0,0,0,0,0,0,0,0,0,0,0,0,0,0,0,0,0,0,0,0,0],"sum_hessian":[4.839059E2,2.7296707E2,2.1093886E2,2.3564497E2,3.732209E1,1.9235619E2,1.8582674E1,1.5330975E2,8.233523E1,2.0312872E1,1.7009216E1,1.6032901E2,3.2027176E1,1.1275921E1,7.3067527E0,1.360714E2,1.7238354E1,5.6926308E1,2.5408922E1,1.4187489E1,2.8217287E0,8.680147E1,7.3527534E1,2.9609173E1,2.418004E0,8.080066E0,3.1958547E0,4.406319E0,2.9004333E0,8.6038216E1,5.003318E1,1.0613039E1,6.625315E0,5.07612E1,6.165105E0,2.3635517E1,1.7734061E0,8.439283E0,5.7482047E0,6.91143E1,1.768717E1,6.753828E1,5.989255E0,1.339972E1,1.6209454E1,2.0905108E0,5.9895554E0,2.156717E0,1.0391377E0,1.6741999E0,1.2262332E0,2.2086958E1,6.3951256E1,1.602208E1,3.40111E1,3.0866616E0,3.0784435E0,1.1378324E1,1.2257194E1,6.5800233E0,1.8592604E0,8.813806E0,7.395648E0,1.2137007E0,4.7758546E0],"tree_param":{"num_deleted":"0","num_feature":"7","num_nodes":"65","size_leaf_vector":"1"}},{"base_weights":[1.7550768E-2,-1.00308195E-1,9.025909E-1,-2.6461715E-1,2.2644715E-1,1.2148925E0,5.904063E-1,-2.9356292E-1,5.755567E-2,4.384729E-1,-5.374046E-1,1.9983003E-2,6.2670246E-2,-1.4512585E-1,1.1057801E0,-2.3260552E-1,-9.094509E-1,7.940092E-1,-1.4356794E-3,-7.389484E-1,8.6412513E-1,-4.3153265E-1,6.9038963E-1,6.444485E-2,2.820746E-2,-2.9749948E-1,1.15449175E-1,-4.3529913E-1,-5.0207574E-2,1.1581199E0,4.0990332E-1,-4.1957462E-1,3.79964E-1,-5.759886E-1,-9.4597274E-1,6.1308898E-2,4.4881162E-4,1.2998094E-2,-6.6222227E-1,5.6066234E-3,4.5442875E-2,-3.751475E-2,4.7845412E-2,3.9345305E-3,-1.8702561E-2,1.8748507E-2,-2.1651957E-2,-3.4654856E-2,1.7573727E-2,6.114262E-2,1.2119933E-2,4.838941E-3,4.5306914E-2,2.1217007E-2,-2.4750944E-2,4.489208E-2,2.6529669E-3,-3.7004363E-2,1.8227054E-2,-5.0360646E-2,-1.2544885E-2,-3.829239E-2,-6.032843E-3],"categories":[],"categories_nodes":[],"categories_segments":[],"categories_sizes":[],"default_left":[0,0,0,0,0,0,0,0,0,0,0,0,0,0,0,0,0,0,0,0,0,0,0,0,0,0,0,0,0,0,0,0,0,0,0,0,0,0,0,0,0,0,0,0,0,0,0,0,0,0,0,0,0,0,0,0,0,0,0,0,0,0,0],"id":23,"left_children":[1,3,5,7,9,11,13,15,-1,17,19,-1,-1,21,23,25,27,29,31,33,35,37,39,-1,41,43,45,47,-1,49,51,53,55,57,59,-1,-1,-1,61,-1,-1,-1,-1,-1,-1,-1,-1,-1,-1,-1,-1,-1,-1,-1,-1,-1,-1,-1,-1,-1,-1,-1,-1],"loss_changes":[5.0248928E1,2.2891071E1,4.8019295E0,1.1952442E1,2.3367256E1,3.5788727E-1,1.1629596E1,1.024571E1,0E0,1.7572384E1,9.530893E0,0E0,0E0,3.49238E0,3.4969444E0,5.789407E0,6.738739E-1,8.214996E0,8.32674E0,4.0184593E-1,1.3571E0,1.8561848E0,3.771937E-1,0E0,3.3375874E0,6.222088E0,5.9645476E0,1.4370893E0,0E0,1.56184E0,4.851014E0,1.795721E0,4.5754766E0,3.087851E0,2.0714283E-1,0E0,0E0,0E0,3.6766028E-1,0E0,0E0,0E0,0E0,0E0,0E0,0E0,0E0,0E0,0E0,0E0,0E0,0E0,0E0,0E0,0E0,0E0,0E0,0E0,0E0,0E0,0E0,0E0,0E0],"parents":[2147483647,0,0,1,1,2,2,3,3,4,4,5,5,6,6,7,7,9,9,10,10,13,13,14,14,15,15,16,16,17,17,18,18,19,19,20,20,21,21,22,22,24,24,25,25,26,26,27,27,29,29,30,30,31,31,32,32,33,33,34,34,38,38],"right_children":[2,4,6,8,10,12,14,16,-1,18,20,-1,-1,22,24,26,28,30,32,34,36,38,40,-1,42,44,46,48,-1,50,52,54,56,58,60,-1,-1,-1,62,-1,-1,-1,-1,-1,-1,-1,-1,-1,-1,-1,-1,-1,-1,-1,-1,-1,-1,-1,-1,-1,-1,-1,-1],"split_conditions":[1.9251482E0,6.936821E-1,6.936821E-1,1.8838167E0,7.994703E-1,-2.2623785E-1,8.939146E-1,7.994703E-1,5.755567E-2,8.0385673E-1,1.9359168E0,1.9983003E-2,6.2670246E-2,2.709874E0,1.2309479E0,8.0385673E-1,6.0312767E-2,-6.3484706E-2,1.365746E0,9.7206473E-1,2.956858E0,1.6451299E-1,6.3341403E-1,6.444485E-2,1.365746E0,-3.174349E-1,3.426271E-2,8.212654E-3,-5.0207574E-2,3.0603306E0,4.510636E-1,-2.5228792E-1,4.510636E-1,8.678645E-1,3.3819377E0,6.1308898E-2,4.4881162E-4,1.2998094E-2,3.04644E0,5.6066234E-3,4.5442875E-2,-3.751475E-2,4.7845412E-2,3.9345305E-3,-1.8702561E-2,1.8748507E-2,-2.1651957E-2,-3.4654856E-2,1.7573727E-2,6.114262E-2,1.2119933E-2,4.838941E-3,4.5306914E-2,2.1217007E-2,-2.4750944E-2,4.489208E-2,2.6529669E-3,-3.7004363E-2,1.8227054E-2,-5.0360646E-2,-1.2544885E-2,-3.829239E-2,-6.032843E-3],"split_indices":[1,4,4,0,2,0,0,2,0,1,0,0,0,4,2,1,0,2,4,0,2,0,0,0,4,1,0,0,0,6,0,0,0,0,4,0,0,0,1,0,0,0,0,0,0,0,0,0,0,0,0,0,0,0,0,0,0,0,0,0,0,0,0],"split_type":[0,0,0,0,0,0,0,0,0,0,0,0,0,0,0,0,0,0,0,0,0,0,0,0,0,0,0,0,0,0,0,0,0,0,0,0,0,0,0,0,0,0,0,0,0,0,0,0,0,0,0,0,0,0,0,0,0,0,0,0,0,0,0],"sum_hessian":[4.7985925E2,4.242495E2,5.5609768E1,2.8242316E2,1.4182634E2,2.635415E1,2.925562E1,2.7754123E2,4.8819165E0,1.1134561E2,3.0480728E1,1.7020682E0,2.4652082E1,1.2349311E1,1.6906307E1,2.5379918E2,2.3742058E1,6.113282E1,5.0212795E1,2.7061909E1,3.4188204E0,9.556832E0,2.7924783E0,1.4283017E1,2.6232903E0,2.1403763E2,3.976155E1,4.8841953E0,1.8857862E1,3.0348783E1,3.0784035E1,2.3904999E1,2.6307796E1,1.7258812E1,9.803096E0,2.0970817E0,1.3217387E0,2.358954E0,7.197879E0,1.1806672E0,1.6118112E0,1.5315444E0,1.091746E0,3.6185772E1,1.7785187E2,2.720546E1,1.2556091E1,3.7684658E0,1.1157293E0,2.8031815E1,2.3169699E0,1.9607021E1,1.1177013E1,1.5821886E0,2.232281E1,9.504467E0,1.680333E1,1.4876376E1,2.3824353E0,8.596614E0,1.2064817E0,5.69419E0,1.5036886E0],"tree_param":{"num_deleted":"0","num_feature":"7","num_nodes":"63","size_leaf_vector":"1"}},{"base_weights":[4.564931E-2,-2.5813315E-2,1.156114E0,6.648182E-2,-6.62587E-1,1.2798343E0,-1.628436E-1,-5.21117E-2,6.273401E-1,4.023116E-2,-7.0487684E-1,7.312543E-2,9.282557E-1,7.543616E-5,-1.3171126E-2,-3.5111916E-1,7.943802E-2,3.4858036E-1,8.974609E-1,-7.9504704E-1,-4.4226733E-1,5.3488698E-2,3.3021637E-3,-4.6062565E-1,8.2882345E-1,6.492874E-2,7.5763665E-2,4.473126E-1,-5.3372663E-1,9.734368E-1,4.7959557E-1,-5.451655E-1,-4.434819E-2,1.4200723E-1,-8.2888645E-1,-2.5900012E-2,-9.535397E-3,5.9408892E-2,-3.4074213E-2,1.9676543E-3,3.379814E-2,3.151836E-2,1.3807148E-2,-3.931591E-2,-3.467837E-3,2.6677448E-2,5.249688E-2,4.3258604E-2,-8.337942E-3,-5.5637257E-3,-3.6830604E-2,-8.713185E-3,2.9735362E-2,-1.7632239E-2,-4.854458E-2],"categories":[],"categories_nodes":[],"categories_segments":[],"categories_sizes":[],"default_left":[0,0,0,0,0,0,0,0,0,0,0,0,0,0,0,0,0,0,0,0,0,0,0,0,0,0,0,0,0,0,0,0,0,0,0,0,0,0,0,0,0,0,0,0,0,0,0,0,0,0,0,0,0,0,0],"id":24,"left_children":[1,3,5,7,9,11,13,15,17,-1,19,-1,21,-1,-1,23,25,27,29,31,33,-1,-1,35,37,39,-1,41,43,45,47,49,-1,51,53,-1,-1,-1,-1,-1,-1,-1,-1,-1,-1,-1,-1,-1,-1,-1,-1,-1,-1,-1,-1],"loss_changes":[3.7829597E1,2.6403198E1,4.911625E0,2.6148563E1,4.09577E0,3.4199142E-1,5.5919953E-2,1.2812647E1,4.853306E0,0E0,9.6990013E-1,0E0,1.3674469E0,0E0,0E0,1.3237197E1,4.6210313E0,3.322466E0,6.192055E-1,4.41864E-1,3.8490596E0,0E0,0E0,1.321085E0,5.5893455E0,3.494527E0,0E0,8.405309E-1,4.1682613E-1,3.8121796E-1,1.9471555E0,1.0336168E0,0E0,1.1676456E0,3.397808E-1,0E0,0E0,0E0,0E0,0E0,0E0,0E0,0E0,0E0,0E0,0E0,0E0,0E0,0E0,0E0,0E0,0E0,0E0,0E0,0E0],"parents":[2147483647,0,0,1,1,2,2,3,3,4,4,5,5,6,6,7,7,8,8,10,10,12,12,15,15,16,16,17,17,18,18,19,19,20,20,23,23,24,24,25,25,27,27,28,28,29,29,30,30,31,31,33,33,34,34],"right_children":[2,4,6,8,10,12,14,16,18,-1,20,-1,22,-1,-1,24,26,28,30,32,34,-1,-1,36,38,40,-1,42,44,46,48,50,-1,52,54,-1,-1,-1,-1,-1,-1,-1,-1,-1,-1,-1,-1,-1,-1,-1,-1,-1,-1,-1,-1],"split_conditions":[1.8838167E0,7.994703E-1,3.819813E0,3.989635E-1,-3.0438802E-1,1.365746E0,3.0603306E0,-5.127885E-1,7.636643E-1,4.023116E-2,1.365746E0,7.312543E-2,1.6624254E0,7.543616E-5,-1.3171126E-2,2.1618139E-2,1.1545631E1,7.115642E-1,1.545166E0,2.1618139E-2,1.6624254E0,5.3488698E-2,3.3021637E-3,-5.648886E-1,-5.388385E-1,2.0378098E0,7.5763665E-2,5.031637E-1,-6.3484706E-2,6.936821E-1,1.365746E0,1.3846293E-1,-4.434819E-2,8.939146E-1,2.0939028E0,-2.5900012E-2,-9.535397E-3,5.9408892E-2,-3.4074213E-2,1.9676543E-3,3.379814E-2,3.151836E-2,1.3807148E-2,-3.931591E-2,-3.467837E-3,2.6677448E-2,5.249688E-2,4.3258604E-2,-8.337942E-3,-5.5637257E-3,-3.6830604E-2,-8.713185E-3,2.9735362E-2,-1.7632239E-2,-4.854458E-2],"split_indices":[0,2,2,0,0,4,6,0,0,0,4,0,2,0,0,4,3,0,0,4,2,0,0,0,0,4,0,0,2,4,4,0,0,0,2,0,0,0,0,0,0,0,0,0,0,0,0,0,0,0,0,0,0,0,0],"split_type":[0,0,0,0,0,0,0,0,0,0,0,0,0,0,0,0,0,0,0,0,0,0,0,0,0,0,0,0,0,0,0,0,0,0,0,0,0,0,0,0,0,0,0,0,0,0,0,0,0,0,0,0,0,0,0],"sum_hessian":[4.7532712E2,4.4750522E2,2.7821907E1,3.9163632E2,5.586889E1,2.546309E1,2.3588161E0,3.240277E2,6.7608604E1,1.0601891E0,5.48087E1,1.4677225E1,1.0785866E1,1.2694515E0,1.0893646E0,9.849142E1,2.255363E2,3.439946E1,3.3209145E1,3.929038E1,1.5518321E1,9.0583515E0,1.7275138E0,9.068488E1,7.8065367E0,2.2431479E2,1.2215066E0,3.1380884E1,3.018576E0,2.6975025E1,6.2341185E0,1.2429926E1,2.686045E1,6.4314885E0,9.086833E0,7.4029755E1,1.6655123E1,6.478391E0,1.3281454E0,2.1632463E2,7.990157E0,1.3867652E1,1.7513233E1,1.5060606E0,1.5125154E0,5.1776137E0,2.1797411E1,3.69272E0,2.5413983E0,4.289504E0,8.140422E0,4.148364E0,2.2831247E0,2.8872397E0,6.199593E0],"tree_param":{"num_deleted":"0","num_feature":"7","num_nodes":"55","size_leaf_vector":"1"}},{"base_weights":[-1.2973576E-2,3.770994E-1,-5.2273667E-1,2.6049846E-1,1.0511868E0,-5.9496856E-1,9.5408237E-1,2.074327E-1,1.2261248E0,7.603301E-2,4.7474796E-1,-9.047639E-1,-3.3907527E-1,4.3959102E-1,6.2262554E-2,1.2854971E-1,5.9371895E-1,7.9356086E-1,7.453015E-2,-4.3181695E-2,8.4581816E-1,-9.2749023E-1,2.5462938E-2,-4.7429356E-1,-4.9311534E-2,-1.5902622E-2,8.556639E-1,2.6977476E-1,-3.190435E-1,2.8139973E-1,7.814233E-1,4.9718134E-2,5.880893E-3,9.565204E-1,-1.6715162E-2,-9.778629E-1,-7.283338E-1,-2.8852865E-1,-6.8001026E-1,3.6053744E-1,-2.9350865E-1,5.506989E-2,1.0366284E-2,-3.9804094E-2,1.589908E-2,-2.2790138E-2,4.805387E-4,3.8646687E-2,-2.3910312E-2,4.432703E-2,1.0245162E-2,1.9195395E-2,6.858479E-2,-4.9570512E-2,-2.6741808E-3,-1.2436216E-2,-4.308855E-2,-2.5082856E-2,7.866555E-3,-4.1705776E-2,-1.7903734E-2,7.231014E-4,3.3277676E-2,-2.305784E-2,3.5293914E-2],"categories":[],"categories_nodes":[],"categories_segments":[],"categories_sizes":[],"default_left":[0,0,0,0,0,0,0,0,0,0,0,0,0,0,0,0,0,0,0,0,0,0,0,0,0,0,0,0,0,0,0,0,0,0,0,0,0,0,0,0,0,0,0,0,0,0,0,0,0,0,0,0,0,0,0,0,0,0,0,0,0,0,0,0,0],"id":25,"left_children":[1,3,5,7,9,11,13,15,17,-1,19,21,23,25,-1,27,29,31,-1,-1,33,35,-1,37,39,-1,41,43,45,47,49,-1,-1,51,-1,53,55,57,59,61,63,-1,-1,-1,-1,-1,-1,-1,-1,-1,-1,-1,-1,-1,-1,-1,-1,-1,-1,-1,-1,-1,-1,-1,-1],"loss_changes":[9.536026E1,2.1081543E1,2.2742939E1,1.1683038E1,1.0031925E1,1.5453224E1,9.62245E-1,6.6892557E0,1.8216324E-1,0E0,1.0310865E1,3.34301E0,4.30507E0,1.9074823E0,0E0,1.1821576E1,1.9711885E0,7.877927E-1,0E0,0E0,2.3588858E0,1.7333984E-1,0E0,2.677824E0,3.7354121E0,0E0,3.4833193E-1,7.5322857E0,2.0263696E0,6.191669E0,1.1989994E0,0E0,0E0,2.9274035E0,0E0,7.927017E-1,1.1768646E0,3.9993794E0,1.4352627E0,1.4670308E0,4.2253914E0,0E0,0E0,0E0,0E0,0E0,0E0,0E0,0E0,0E0,0E0,0E0,0E0,0E0,0E0,0E0,0E0,0E0,0E0,0E0,0E0,0E0,0E0,0E0,0E0],"parents":[2147483647,0,0,1,1,2,2,3,3,4,4,5,5,6,6,7,7,8,8,10,10,11,11,12,12,13,13,